#include "apps.h"


//#define PAI 3.141593


static const struct C W2[1]={
	{1.0000000, -0.0000000},
};
static const struct C W4[2]={
	{1.0000000, -0.0000000},
	{-0.0000002, -1.0000000},
};
static const struct C W8[4]={
	{1.0000000, -0.0000000},
	{0.7071067, -0.7071068},
	{-0.0000002, -1.0000000},
	{-0.7071069, -0.7071066},
};
static const struct C W16[8]={
	{1.0000000, -0.0000000},
	{0.9238795, -0.3826835},
	{0.7071067, -0.7071068},
	{0.3826833, -0.9238796},
	{-0.0000002, -1.0000000},
	{-0.3826836, -0.9238794},
	{-0.7071069, -0.7071066},
	{-0.9238797, -0.3826831},
};
static const struct C W32[16]={
	{1.0000000, -0.0000000},
	{0.9807853, -0.1950903},
	{0.9238795, -0.3826835},
	{0.8314696, -0.5555703},
	{0.7071067, -0.7071068},
	{0.5555701, -0.8314697},
	{0.3826833, -0.9238796},
	{0.1950901, -0.9807853},
	{-0.0000002, -1.0000000},
	{-0.1950906, -0.9807853},
	{-0.3826836, -0.9238794},
	{-0.5555704, -0.8314695},
	{-0.7071069, -0.7071066},
	{-0.8314698, -0.5555699},
	{-0.9238797, -0.3826831},
	{-0.9807853, -0.1950901},
};
static const struct C W64[32]={
	{1.0000000, -0.0000000},
	{0.9951847, -0.0980171},
	{0.9807853, -0.1950903},
	{0.9569404, -0.2902847},
	{0.9238795, -0.3826835},
	{0.8819212, -0.4713968},
	{0.8314696, -0.5555703},
	{0.7730104, -0.6343933},
	{0.7071067, -0.7071068},
	{0.6343932, -0.7730106},
	{0.5555701, -0.8314697},
	{0.4713967, -0.8819213},
	{0.3826833, -0.9238796},
	{0.2902845, -0.9569404},
	{0.1950901, -0.9807853},
	{0.0980170, -0.9951847},
	{-0.0000002, -1.0000000},
	{-0.0980173, -0.9951847},
	{-0.1950906, -0.9807853},
	{-0.2902848, -0.9569403},
	{-0.3826836, -0.9238794},
	{-0.4713968, -0.8819212},
	{-0.5555704, -0.8314695},
	{-0.6343935, -0.7730103},
	{-0.7071069, -0.7071066},
	{-0.7730106, -0.6343930},
	{-0.8314698, -0.5555699},
	{-0.8819214, -0.4713964},
	{-0.9238797, -0.3826831},
	{-0.9569404, -0.2902845},
	{-0.9807853, -0.1950901},
	{-0.9951848, -0.0980169},
};
static const struct C W128[64]={
	{1.0000000, -0.0000000},
	{0.9987954, -0.0490677},
	{0.9951847, -0.0980171},
	{0.9891765, -0.1467305},
	{0.9807853, -0.1950903},
	{0.9700313, -0.2429802},
	{0.9569404, -0.2902847},
	{0.9415441, -0.3368899},
	{0.9238795, -0.3826835},
	{0.9039893, -0.4275551},
	{0.8819212, -0.4713968},
	{0.8577286, -0.5141028},
	{0.8314696, -0.5555703},
	{0.8032075, -0.5956994},
	{0.7730104, -0.6343933},
	{0.7409511, -0.6715590},
	{0.7071067, -0.7071068},
	{0.6715589, -0.7409512},
	{0.6343932, -0.7730106},
	{0.5956993, -0.8032076},
	{0.5555701, -0.8314697},
	{0.5141027, -0.8577287},
	{0.4713967, -0.8819213},
	{0.4275550, -0.9039893},
	{0.3826833, -0.9238796},
	{0.3368897, -0.9415441},
	{0.2902845, -0.9569404},
	{0.2429800, -0.9700313},
	{0.1950901, -0.9807853},
	{0.1467304, -0.9891765},
	{0.0980170, -0.9951847},
	{0.0490675, -0.9987954},
	{-0.0000002, -1.0000000},
	{-0.0490679, -0.9987954},
	{-0.0980173, -0.9951847},
	{-0.1467307, -0.9891765},
	{-0.1950906, -0.9807853},
	{-0.2429803, -0.9700312},
	{-0.2902848, -0.9569403},
	{-0.3368900, -0.9415440},
	{-0.3826836, -0.9238794},
	{-0.4275553, -0.9039892},
	{-0.4713968, -0.8819212},
	{-0.5141030, -0.8577285},
	{-0.5555704, -0.8314695},
	{-0.5956995, -0.8032073},
	{-0.6343935, -0.7730103},
	{-0.6715592, -0.7409509},
	{-0.7071069, -0.7071066},
	{-0.7409514, -0.6715587},
	{-0.7730106, -0.6343930},
	{-0.8032076, -0.5956991},
	{-0.8314698, -0.5555699},
	{-0.8577287, -0.5141026},
	{-0.8819214, -0.4713964},
	{-0.9039894, -0.4275548},
	{-0.9238797, -0.3826831},
	{-0.9415442, -0.3368896},
	{-0.9569404, -0.2902845},
	{-0.9700313, -0.2429798},
	{-0.9807853, -0.1950901},
	{-0.9891766, -0.1467301},
	{-0.9951848, -0.0980169},
	{-0.9987954, -0.0490673},
};
static const struct C W256[128]={
	{1.0000000, -0.0000000},
	{0.9996988, -0.0245412},
	{0.9987954, -0.0490677},
	{0.9972904, -0.0735646},
	{0.9951847, -0.0980171},
	{0.9924796, -0.1224107},
	{0.9891765, -0.1467305},
	{0.9852777, -0.1709619},
	{0.9807853, -0.1950903},
	{0.9757021, -0.2191013},
	{0.9700313, -0.2429802},
	{0.9637761, -0.2667128},
	{0.9569404, -0.2902847},
	{0.9495282, -0.3136818},
	{0.9415441, -0.3368899},
	{0.9329928, -0.3598951},
	{0.9238795, -0.3826835},
	{0.9142097, -0.4052414},
	{0.9039893, -0.4275551},
	{0.8932243, -0.4496114},
	{0.8819212, -0.4713968},
	{0.8700870, -0.4928982},
	{0.8577286, -0.5141028},
	{0.8448535, -0.5349976},
	{0.8314696, -0.5555703},
	{0.8175848, -0.5758082},
	{0.8032075, -0.5956994},
	{0.7883464, -0.6152316},
	{0.7730104, -0.6343933},
	{0.7572088, -0.6531729},
	{0.7409511, -0.6715590},
	{0.7242470, -0.6895406},
	{0.7071067, -0.7071068},
	{0.6895405, -0.7242472},
	{0.6715589, -0.7409512},
	{0.6531727, -0.7572089},
	{0.6343932, -0.7730106},
	{0.6152315, -0.7883465},
	{0.5956993, -0.8032076},
	{0.5758081, -0.8175849},
	{0.5555701, -0.8314697},
	{0.5349975, -0.8448536},
	{0.5141027, -0.8577287},
	{0.4928981, -0.8700870},
	{0.4713967, -0.8819213},
	{0.4496112, -0.8932244},
	{0.4275550, -0.9039893},
	{0.4052412, -0.9142098},
	{0.3826833, -0.9238796},
	{0.3598949, -0.9329929},
	{0.3368897, -0.9415441},
	{0.3136817, -0.9495282},
	{0.2902845, -0.9569404},
	{0.2667126, -0.9637761},
	{0.2429800, -0.9700313},
	{0.2191011, -0.9757022},
	{0.1950901, -0.9807853},
	{0.1709617, -0.9852777},
	{0.1467304, -0.9891765},
	{0.1224105, -0.9924796},
	{0.0980170, -0.9951847},
	{0.0735644, -0.9972905},
	{0.0490675, -0.9987954},
	{0.0245410, -0.9996988},
	{-0.0000002, -1.0000000},
	{-0.0245415, -0.9996988},
	{-0.0490679, -0.9987954},
	{-0.0735647, -0.9972904},
	{-0.0980173, -0.9951847},
	{-0.1224108, -0.9924795},
	{-0.1467307, -0.9891765},
	{-0.1709621, -0.9852776},
	{-0.1950906, -0.9807853},
	{-0.2191014, -0.9757021},
	{-0.2429803, -0.9700312},
	{-0.2667130, -0.9637760},
	{-0.2902848, -0.9569403},
	{-0.3136820, -0.9495281},
	{-0.3368900, -0.9415440},
	{-0.3598953, -0.9329927},
	{-0.3826836, -0.9238794},
	{-0.4052415, -0.9142097},
	{-0.4275553, -0.9039892},
	{-0.4496116, -0.8932242},
	{-0.4713968, -0.8819212},
	{-0.4928984, -0.8700869},
	{-0.5141030, -0.8577285},
	{-0.5349979, -0.8448534},
	{-0.5555704, -0.8314695},
	{-0.5758084, -0.8175847},
	{-0.5956995, -0.8032073},
	{-0.6152317, -0.7883464},
	{-0.6343935, -0.7730103},
	{-0.6531730, -0.7572086},
	{-0.6715592, -0.7409509},
	{-0.6895407, -0.7242470},
	{-0.7071069, -0.7071066},
	{-0.7242473, -0.6895403},
	{-0.7409514, -0.6715587},
	{-0.7572090, -0.6531727},
	{-0.7730106, -0.6343930},
	{-0.7883466, -0.6152313},
	{-0.8032076, -0.5956991},
	{-0.8175849, -0.5758080},
	{-0.8314698, -0.5555699},
	{-0.8448538, -0.5349973},
	{-0.8577287, -0.5141026},
	{-0.8700871, -0.4928979},
	{-0.8819214, -0.4713964},
	{-0.8932244, -0.4496112},
	{-0.9039894, -0.4275548},
	{-0.9142099, -0.4052410},
	{-0.9238797, -0.3826831},
	{-0.9329929, -0.3598948},
	{-0.9415442, -0.3368896},
	{-0.9495283, -0.3136814},
	{-0.9569404, -0.2902845},
	{-0.9637761, -0.2667125},
	{-0.9700313, -0.2429798},
	{-0.9757022, -0.2191008},
	{-0.9807853, -0.1950901},
	{-0.9852777, -0.1709616},
	{-0.9891766, -0.1467301},
	{-0.9924796, -0.1224105},
	{-0.9951848, -0.0980169},
	{-0.9972905, -0.0735642},
	{-0.9987954, -0.0490673},
	{-0.9996988, -0.0245410},
};
static const struct C W512[256]={
	{1.0000000, -0.0000000},
	{0.9999247, -0.0122715},
	{0.9996988, -0.0245412},
	{0.9993224, -0.0368072},
	{0.9987954, -0.0490677},
	{0.9981181, -0.0613207},
	{0.9972904, -0.0735646},
	{0.9963126, -0.0857973},
	{0.9951847, -0.0980171},
	{0.9939070, -0.1102222},
	{0.9924796, -0.1224107},
	{0.9909027, -0.1345807},
	{0.9891765, -0.1467305},
	{0.9873014, -0.1588582},
	{0.9852777, -0.1709619},
	{0.9831055, -0.1830399},
	{0.9807853, -0.1950903},
	{0.9783174, -0.2071114},
	{0.9757021, -0.2191013},
	{0.9729400, -0.2310581},
	{0.9700313, -0.2429802},
	{0.9669765, -0.2548657},
	{0.9637761, -0.2667128},
	{0.9604305, -0.2785197},
	{0.9569404, -0.2902847},
	{0.9533060, -0.3020060},
	{0.9495282, -0.3136818},
	{0.9456073, -0.3253103},
	{0.9415441, -0.3368899},
	{0.9373390, -0.3484187},
	{0.9329928, -0.3598951},
	{0.9285061, -0.3713172},
	{0.9238795, -0.3826835},
	{0.9191138, -0.3939921},
	{0.9142097, -0.4052414},
	{0.9091679, -0.4164296},
	{0.9039893, -0.4275551},
	{0.8986744, -0.4386163},
	{0.8932243, -0.4496114},
	{0.8876396, -0.4605387},
	{0.8819212, -0.4713968},
	{0.8760701, -0.4821838},
	{0.8700870, -0.4928982},
	{0.8639728, -0.5035384},
	{0.8577286, -0.5141028},
	{0.8513551, -0.5245898},
	{0.8448535, -0.5349976},
	{0.8382246, -0.5453250},
	{0.8314696, -0.5555703},
	{0.8245893, -0.5657319},
	{0.8175848, -0.5758082},
	{0.8104572, -0.5857979},
	{0.8032075, -0.5956994},
	{0.7958369, -0.6055111},
	{0.7883464, -0.6152316},
	{0.7807372, -0.6248595},
	{0.7730104, -0.6343933},
	{0.7651672, -0.6438316},
	{0.7572088, -0.6531729},
	{0.7491363, -0.6624159},
	{0.7409511, -0.6715590},
	{0.7326542, -0.6806011},
	{0.7242470, -0.6895406},
	{0.7157307, -0.6983763},
	{0.7071067, -0.7071068},
	{0.6983762, -0.7157309},
	{0.6895405, -0.7242472},
	{0.6806009, -0.7326543},
	{0.6715589, -0.7409512},
	{0.6624157, -0.7491364},
	{0.6531727, -0.7572089},
	{0.6438315, -0.7651673},
	{0.6343932, -0.7730106},
	{0.6248594, -0.7807373},
	{0.6152315, -0.7883465},
	{0.6055110, -0.7958370},
	{0.5956993, -0.8032076},
	{0.5857978, -0.8104573},
	{0.5758081, -0.8175849},
	{0.5657317, -0.8245894},
	{0.5555701, -0.8314697},
	{0.5453249, -0.8382248},
	{0.5349975, -0.8448536},
	{0.5245895, -0.8513553},
	{0.5141027, -0.8577287},
	{0.5035383, -0.8639729},
	{0.4928981, -0.8700870},
	{0.4821836, -0.8760702},
	{0.4713967, -0.8819213},
	{0.4605386, -0.8876397},
	{0.4496112, -0.8932244},
	{0.4386162, -0.8986745},
	{0.4275550, -0.9039893},
	{0.4164294, -0.9091681},
	{0.4052412, -0.9142098},
	{0.3939919, -0.9191139},
	{0.3826833, -0.9238796},
	{0.3713171, -0.9285061},
	{0.3598949, -0.9329929},
	{0.3484186, -0.9373391},
	{0.3368897, -0.9415441},
	{0.3253101, -0.9456074},
	{0.3136817, -0.9495282},
	{0.3020058, -0.9533061},
	{0.2902845, -0.9569404},
	{0.2785195, -0.9604306},
	{0.2667126, -0.9637761},
	{0.2548655, -0.9669765},
	{0.2429800, -0.9700313},
	{0.2310580, -0.9729400},
	{0.2191011, -0.9757022},
	{0.2071112, -0.9783174},
	{0.1950901, -0.9807853},
	{0.1830398, -0.9831055},
	{0.1709617, -0.9852777},
	{0.1588580, -0.9873015},
	{0.1467304, -0.9891765},
	{0.1345806, -0.9909027},
	{0.1224105, -0.9924796},
	{0.1102220, -0.9939070},
	{0.0980170, -0.9951847},
	{0.0857972, -0.9963126},
	{0.0735644, -0.9972905},
	{0.0613206, -0.9981181},
	{0.0490675, -0.9987954},
	{0.0368070, -0.9993224},
	{0.0245410, -0.9996988},
	{0.0122714, -0.9999247},
	{-0.0000002, -1.0000000},
	{-0.0122717, -0.9999247},
	{-0.0245415, -0.9996988},
	{-0.0368074, -0.9993224},
	{-0.0490679, -0.9987954},
	{-0.0613210, -0.9981181},
	{-0.0735647, -0.9972904},
	{-0.0857975, -0.9963126},
	{-0.0980173, -0.9951847},
	{-0.1102224, -0.9939069},
	{-0.1224108, -0.9924795},
	{-0.1345809, -0.9909026},
	{-0.1467307, -0.9891765},
	{-0.1588583, -0.9873014},
	{-0.1709621, -0.9852776},
	{-0.1830401, -0.9831054},
	{-0.1950906, -0.9807853},
	{-0.2071115, -0.9783173},
	{-0.2191014, -0.9757021},
	{-0.2310583, -0.9729399},
	{-0.2429803, -0.9700312},
	{-0.2548658, -0.9669764},
	{-0.2667130, -0.9637760},
	{-0.2785199, -0.9604304},
	{-0.2902848, -0.9569403},
	{-0.3020061, -0.9533060},
	{-0.3136820, -0.9495281},
	{-0.3253106, -0.9456072},
	{-0.3368900, -0.9415440},
	{-0.3484189, -0.9373389},
	{-0.3598953, -0.9329927},
	{-0.3713174, -0.9285060},
	{-0.3826836, -0.9238794},
	{-0.3939922, -0.9191138},
	{-0.4052415, -0.9142097},
	{-0.4164297, -0.9091679},
	{-0.4275553, -0.9039892},
	{-0.4386165, -0.8986744},
	{-0.4496116, -0.8932242},
	{-0.4605390, -0.8876395},
	{-0.4713968, -0.8819212},
	{-0.4821839, -0.8760700},
	{-0.4928984, -0.8700869},
	{-0.5035386, -0.8639727},
	{-0.5141030, -0.8577285},
	{-0.5245900, -0.8513550},
	{-0.5349979, -0.8448534},
	{-0.5453251, -0.8382246},
	{-0.5555704, -0.8314695},
	{-0.5657320, -0.8245892},
	{-0.5758084, -0.8175847},
	{-0.5857981, -0.8104571},
	{-0.5956995, -0.8032073},
	{-0.6055113, -0.7958367},
	{-0.6152317, -0.7883464},
	{-0.6248596, -0.7807371},
	{-0.6343935, -0.7730103},
	{-0.6438317, -0.7651671},
	{-0.6531730, -0.7572086},
	{-0.6624160, -0.7491362},
	{-0.6715592, -0.7409509},
	{-0.6806011, -0.7326542},
	{-0.6895407, -0.7242470},
	{-0.6983764, -0.7157307},
	{-0.7071069, -0.7071066},
	{-0.7157310, -0.6983761},
	{-0.7242473, -0.6895403},
	{-0.7326545, -0.6806008},
	{-0.7409514, -0.6715587},
	{-0.7491365, -0.6624156},
	{-0.7572090, -0.6531727},
	{-0.7651674, -0.6438314},
	{-0.7730106, -0.6343930},
	{-0.7807374, -0.6248592},
	{-0.7883466, -0.6152313},
	{-0.7958372, -0.6055107},
	{-0.8032076, -0.5956991},
	{-0.8104573, -0.5857977},
	{-0.8175849, -0.5758080},
	{-0.8245895, -0.5657316},
	{-0.8314698, -0.5555699},
	{-0.8382249, -0.5453247},
	{-0.8448538, -0.5349973},
	{-0.8513553, -0.5245895},
	{-0.8577287, -0.5141026},
	{-0.8639730, -0.5035381},
	{-0.8700871, -0.4928979},
	{-0.8760703, -0.4821835},
	{-0.8819214, -0.4713964},
	{-0.8876398, -0.4605384},
	{-0.8932244, -0.4496112},
	{-0.8986745, -0.4386160},
	{-0.9039894, -0.4275548},
	{-0.9091681, -0.4164293},
	{-0.9142099, -0.4052410},
	{-0.9191140, -0.3939917},
	{-0.9238797, -0.3826831},
	{-0.9285061, -0.3713170},
	{-0.9329929, -0.3598948},
	{-0.9373391, -0.3484184},
	{-0.9415442, -0.3368896},
	{-0.9456074, -0.3253100},
	{-0.9495283, -0.3136814},
	{-0.9533061, -0.3020056},
	{-0.9569404, -0.2902845},
	{-0.9604306, -0.2785195},
	{-0.9637761, -0.2667125},
	{-0.9669765, -0.2548653},
	{-0.9700313, -0.2429798},
	{-0.9729400, -0.2310577},
	{-0.9757022, -0.2191008},
	{-0.9783174, -0.2071112},
	{-0.9807853, -0.1950901},
	{-0.9831055, -0.1830396},
	{-0.9852777, -0.1709616},
	{-0.9873015, -0.1588578},
	{-0.9891766, -0.1467301},
	{-0.9909027, -0.1345803},
	{-0.9924796, -0.1224105},
	{-0.9939070, -0.1102220},
	{-0.9951848, -0.0980169},
	{-0.9963126, -0.0857970},
	{-0.9972905, -0.0735642},
	{-0.9981182, -0.0613203},
	{-0.9987954, -0.0490673},
	{-0.9993224, -0.0368068},
	{-0.9996988, -0.0245410},
	{-0.9999247, -0.0122712},
};
static const struct C W1024[512]={
	{1.0000000, -0.0000000},
	{0.9999812, -0.0061359},
	{0.9999247, -0.0122715},
	{0.9998306, -0.0184067},
	{0.9996988, -0.0245412},
	{0.9995294, -0.0306748},
	{0.9993224, -0.0368072},
	{0.9990777, -0.0429383},
	{0.9987954, -0.0490677},
	{0.9984756, -0.0551953},
	{0.9981181, -0.0613207},
	{0.9977230, -0.0674439},
	{0.9972904, -0.0735646},
	{0.9968203, -0.0796824},
	{0.9963126, -0.0857973},
	{0.9957674, -0.0919090},
	{0.9951847, -0.0980171},
	{0.9945646, -0.1041216},
	{0.9939070, -0.1102222},
	{0.9932119, -0.1163186},
	{0.9924796, -0.1224107},
	{0.9917098, -0.1284981},
	{0.9909027, -0.1345807},
	{0.9900582, -0.1406583},
	{0.9891765, -0.1467305},
	{0.9882576, -0.1527972},
	{0.9873014, -0.1588582},
	{0.9863081, -0.1649131},
	{0.9852777, -0.1709619},
	{0.9842101, -0.1770042},
	{0.9831055, -0.1830399},
	{0.9819639, -0.1890687},
	{0.9807853, -0.1950903},
	{0.9795697, -0.2011047},
	{0.9783174, -0.2071114},
	{0.9770281, -0.2131103},
	{0.9757021, -0.2191013},
	{0.9743394, -0.2250839},
	{0.9729400, -0.2310581},
	{0.9715039, -0.2370236},
	{0.9700313, -0.2429802},
	{0.9685221, -0.2489276},
	{0.9669765, -0.2548657},
	{0.9653944, -0.2607942},
	{0.9637761, -0.2667128},
	{0.9621214, -0.2726214},
	{0.9604305, -0.2785197},
	{0.9587035, -0.2844076},
	{0.9569404, -0.2902847},
	{0.9551411, -0.2961509},
	{0.9533060, -0.3020060},
	{0.9514350, -0.3078497},
	{0.9495282, -0.3136818},
	{0.9475856, -0.3195021},
	{0.9456073, -0.3253103},
	{0.9435934, -0.3311063},
	{0.9415441, -0.3368899},
	{0.9394592, -0.3426608},
	{0.9373390, -0.3484187},
	{0.9351835, -0.3541636},
	{0.9329928, -0.3598951},
	{0.9307669, -0.3656130},
	{0.9285061, -0.3713172},
	{0.9262102, -0.3770075},
	{0.9238795, -0.3826835},
	{0.9215140, -0.3883451},
	{0.9191138, -0.3939921},
	{0.9166790, -0.3996242},
	{0.9142097, -0.4052414},
	{0.9117060, -0.4108432},
	{0.9091679, -0.4164296},
	{0.9065957, -0.4220003},
	{0.9039893, -0.4275551},
	{0.9013488, -0.4330939},
	{0.8986744, -0.4386163},
	{0.8959662, -0.4441222},
	{0.8932243, -0.4496114},
	{0.8904487, -0.4550836},
	{0.8876396, -0.4605387},
	{0.8847971, -0.4659766},
	{0.8819212, -0.4713968},
	{0.8790122, -0.4767993},
	{0.8760701, -0.4821838},
	{0.8730949, -0.4875502},
	{0.8700870, -0.4928982},
	{0.8670462, -0.4982277},
	{0.8639728, -0.5035384},
	{0.8608669, -0.5088302},
	{0.8577286, -0.5141028},
	{0.8545579, -0.5193560},
	{0.8513551, -0.5245898},
	{0.8481203, -0.5298036},
	{0.8448535, -0.5349976},
	{0.8415549, -0.5401715},
	{0.8382246, -0.5453250},
	{0.8348628, -0.5504580},
	{0.8314696, -0.5555703},
	{0.8280450, -0.5606616},
	{0.8245893, -0.5657319},
	{0.8211025, -0.5707808},
	{0.8175848, -0.5758082},
	{0.8140363, -0.5808140},
	{0.8104572, -0.5857979},
	{0.8068475, -0.5907598},
	{0.8032075, -0.5956994},
	{0.7995372, -0.6006166},
	{0.7958369, -0.6055111},
	{0.7921065, -0.6103829},
	{0.7883464, -0.6152316},
	{0.7845566, -0.6200572},
	{0.7807372, -0.6248595},
	{0.7768884, -0.6296383},
	{0.7730104, -0.6343933},
	{0.7691033, -0.6391245},
	{0.7651672, -0.6438316},
	{0.7612023, -0.6485144},
	{0.7572088, -0.6531729},
	{0.7531868, -0.6578068},
	{0.7491363, -0.6624159},
	{0.7450577, -0.6670000},
	{0.7409511, -0.6715590},
	{0.7368165, -0.6760927},
	{0.7326542, -0.6806011},
	{0.7284644, -0.6850837},
	{0.7242470, -0.6895406},
	{0.7200025, -0.6939715},
	{0.7157307, -0.6983763},
	{0.7114322, -0.7027548},
	{0.7071067, -0.7071068},
	{0.7027547, -0.7114323},
	{0.6983762, -0.7157309},
	{0.6939714, -0.7200025},
	{0.6895405, -0.7242472},
	{0.6850836, -0.7284645},
	{0.6806009, -0.7326543},
	{0.6760926, -0.7368166},
	{0.6715589, -0.7409512},
	{0.6669998, -0.7450579},
	{0.6624157, -0.7491364},
	{0.6578066, -0.7531869},
	{0.6531727, -0.7572089},
	{0.6485143, -0.7612025},
	{0.6438315, -0.7651673},
	{0.6391244, -0.7691034},
	{0.6343932, -0.7730106},
	{0.6296382, -0.7768885},
	{0.6248594, -0.7807373},
	{0.6200571, -0.7845567},
	{0.6152315, -0.7883465},
	{0.6103827, -0.7921066},
	{0.6055110, -0.7958370},
	{0.6006164, -0.7995374},
	{0.5956993, -0.8032076},
	{0.5907596, -0.8068476},
	{0.5857978, -0.8104573},
	{0.5808138, -0.8140364},
	{0.5758081, -0.8175849},
	{0.5707806, -0.8211026},
	{0.5657317, -0.8245894},
	{0.5606615, -0.8280451},
	{0.5555701, -0.8314697},
	{0.5504579, -0.8348629},
	{0.5453249, -0.8382248},
	{0.5401714, -0.8415550},
	{0.5349975, -0.8448536},
	{0.5298035, -0.8481204},
	{0.5245895, -0.8513553},
	{0.5193558, -0.8545581},
	{0.5141027, -0.8577287},
	{0.5088301, -0.8608670},
	{0.5035383, -0.8639729},
	{0.4982276, -0.8670463},
	{0.4928981, -0.8700870},
	{0.4875500, -0.8730950},
	{0.4821836, -0.8760702},
	{0.4767992, -0.8790123},
	{0.4713967, -0.8819213},
	{0.4659764, -0.8847972},
	{0.4605386, -0.8876397},
	{0.4550835, -0.8904488},
	{0.4496112, -0.8932244},
	{0.4441220, -0.8959664},
	{0.4386162, -0.8986745},
	{0.4330938, -0.9013489},
	{0.4275550, -0.9039893},
	{0.4220002, -0.9065958},
	{0.4164294, -0.9091681},
	{0.4108430, -0.9117061},
	{0.4052412, -0.9142098},
	{0.3996241, -0.9166791},
	{0.3939919, -0.9191139},
	{0.3883449, -0.9215141},
	{0.3826833, -0.9238796},
	{0.3770073, -0.9262103},
	{0.3713171, -0.9285061},
	{0.3656128, -0.9307670},
	{0.3598949, -0.9329929},
	{0.3541634, -0.9351835},
	{0.3484186, -0.9373391},
	{0.3426606, -0.9394593},
	{0.3368897, -0.9415441},
	{0.3311062, -0.9435935},
	{0.3253101, -0.9456074},
	{0.3195018, -0.9475856},
	{0.3136817, -0.9495282},
	{0.3078495, -0.9514350},
	{0.3020058, -0.9533061},
	{0.2961507, -0.9551412},
	{0.2902845, -0.9569404},
	{0.2844074, -0.9587035},
	{0.2785195, -0.9604306},
	{0.2726213, -0.9621214},
	{0.2667126, -0.9637761},
	{0.2607940, -0.9653945},
	{0.2548655, -0.9669765},
	{0.2489274, -0.9685221},
	{0.2429800, -0.9700313},
	{0.2370234, -0.9715039},
	{0.2310580, -0.9729400},
	{0.2250838, -0.9743394},
	{0.2191011, -0.9757022},
	{0.2131102, -0.9770282},
	{0.2071112, -0.9783174},
	{0.2011044, -0.9795698},
	{0.1950901, -0.9807853},
	{0.1890686, -0.9819639},
	{0.1830398, -0.9831055},
	{0.1770041, -0.9842101},
	{0.1709617, -0.9852777},
	{0.1649130, -0.9863081},
	{0.1588580, -0.9873015},
	{0.1527970, -0.9882576},
	{0.1467304, -0.9891765},
	{0.1406581, -0.9900582},
	{0.1345806, -0.9909027},
	{0.1284980, -0.9917098},
	{0.1224105, -0.9924796},
	{0.1163184, -0.9932120},
	{0.1102220, -0.9939070},
	{0.1041215, -0.9945646},
	{0.0980170, -0.9951847},
	{0.0919088, -0.9957674},
	{0.0857972, -0.9963126},
	{0.0796823, -0.9968203},
	{0.0735644, -0.9972905},
	{0.0674437, -0.9977231},
	{0.0613206, -0.9981181},
	{0.0551951, -0.9984756},
	{0.0490675, -0.9987954},
	{0.0429381, -0.9990777},
	{0.0368070, -0.9993224},
	{0.0306746, -0.9995294},
	{0.0245410, -0.9996988},
	{0.0184065, -0.9998306},
	{0.0122714, -0.9999247},
	{0.0061357, -0.9999812},
	{-0.0000002, -1.0000000},
	{-0.0061361, -0.9999812},
	{-0.0122717, -0.9999247},
	{-0.0184069, -0.9998306},
	{-0.0245415, -0.9996988},
	{-0.0306749, -0.9995294},
	{-0.0368074, -0.9993224},
	{-0.0429384, -0.9990777},
	{-0.0490679, -0.9987954},
	{-0.0551954, -0.9984756},
	{-0.0613210, -0.9981181},
	{-0.0674442, -0.9977230},
	{-0.0735647, -0.9972904},
	{-0.0796826, -0.9968203},
	{-0.0857975, -0.9963126},
	{-0.0919091, -0.9957674},
	{-0.0980173, -0.9951847},
	{-0.1041219, -0.9945645},
	{-0.1102224, -0.9939069},
	{-0.1163188, -0.9932119},
	{-0.1224108, -0.9924795},
	{-0.1284983, -0.9917097},
	{-0.1345809, -0.9909026},
	{-0.1406584, -0.9900582},
	{-0.1467307, -0.9891765},
	{-0.1527974, -0.9882575},
	{-0.1588583, -0.9873014},
	{-0.1649133, -0.9863081},
	{-0.1709621, -0.9852776},
	{-0.1770044, -0.9842101},
	{-0.1830401, -0.9831054},
	{-0.1890689, -0.9819638},
	{-0.1950906, -0.9807853},
	{-0.2011048, -0.9795697},
	{-0.2071115, -0.9783173},
	{-0.2131105, -0.9770281},
	{-0.2191014, -0.9757021},
	{-0.2250841, -0.9743393},
	{-0.2310583, -0.9729399},
	{-0.2370238, -0.9715039},
	{-0.2429803, -0.9700312},
	{-0.2489278, -0.9685221},
	{-0.2548658, -0.9669764},
	{-0.2607943, -0.9653944},
	{-0.2667130, -0.9637760},
	{-0.2726216, -0.9621214},
	{-0.2785199, -0.9604304},
	{-0.2844077, -0.9587035},
	{-0.2902848, -0.9569403},
	{-0.2961511, -0.9551411},
	{-0.3020061, -0.9533060},
	{-0.3078499, -0.9514350},
	{-0.3136820, -0.9495281},
	{-0.3195023, -0.9475855},
	{-0.3253106, -0.9456072},
	{-0.3311065, -0.9435934},
	{-0.3368900, -0.9415440},
	{-0.3426609, -0.9394591},
	{-0.3484189, -0.9373389},
	{-0.3541637, -0.9351834},
	{-0.3598953, -0.9329927},
	{-0.3656133, -0.9307669},
	{-0.3713174, -0.9285060},
	{-0.3770076, -0.9262102},
	{-0.3826836, -0.9238794},
	{-0.3883452, -0.9215140},
	{-0.3939922, -0.9191138},
	{-0.3996244, -0.9166790},
	{-0.4052415, -0.9142097},
	{-0.4108433, -0.9117060},
	{-0.4164297, -0.9091679},
	{-0.4220005, -0.9065956},
	{-0.4275553, -0.9039892},
	{-0.4330940, -0.9013488},
	{-0.4386165, -0.8986744},
	{-0.4441224, -0.8959661},
	{-0.4496116, -0.8932242},
	{-0.4550839, -0.8904486},
	{-0.4605390, -0.8876395},
	{-0.4659768, -0.8847969},
	{-0.4713968, -0.8819212},
	{-0.4767994, -0.8790122},
	{-0.4821839, -0.8760700},
	{-0.4875503, -0.8730949},
	{-0.4928984, -0.8700869},
	{-0.4982279, -0.8670461},
	{-0.5035386, -0.8639727},
	{-0.5088304, -0.8608668},
	{-0.5141030, -0.8577285},
	{-0.5193563, -0.8545579},
	{-0.5245900, -0.8513550},
	{-0.5298039, -0.8481202},
	{-0.5349979, -0.8448534},
	{-0.5401717, -0.8415548},
	{-0.5453251, -0.8382246},
	{-0.5504581, -0.8348628},
	{-0.5555704, -0.8314695},
	{-0.5606617, -0.8280450},
	{-0.5657320, -0.8245892},
	{-0.5707809, -0.8211024},
	{-0.5758084, -0.8175847},
	{-0.5808142, -0.8140362},
	{-0.5857981, -0.8104571},
	{-0.5907599, -0.8068474},
	{-0.5956995, -0.8032073},
	{-0.6006168, -0.7995371},
	{-0.6055113, -0.7958367},
	{-0.6103831, -0.7921063},
	{-0.6152317, -0.7883464},
	{-0.6200573, -0.7845565},
	{-0.6248596, -0.7807371},
	{-0.6296384, -0.7768884},
	{-0.6343935, -0.7730103},
	{-0.6391246, -0.7691032},
	{-0.6438317, -0.7651671},
	{-0.6485146, -0.7612022},
	{-0.6531730, -0.7572086},
	{-0.6578069, -0.7531866},
	{-0.6624160, -0.7491362},
	{-0.6670002, -0.7450576},
	{-0.6715592, -0.7409509},
	{-0.6760930, -0.7368163},
	{-0.6806011, -0.7326542},
	{-0.6850838, -0.7284643},
	{-0.6895407, -0.7242470},
	{-0.6939716, -0.7200024},
	{-0.6983764, -0.7157307},
	{-0.7027549, -0.7114320},
	{-0.7071069, -0.7071066},
	{-0.7114324, -0.7027546},
	{-0.7157310, -0.6983761},
	{-0.7200027, -0.6939713},
	{-0.7242473, -0.6895403},
	{-0.7284646, -0.6850834},
	{-0.7326545, -0.6806008},
	{-0.7368168, -0.6760924},
	{-0.7409514, -0.6715587},
	{-0.7450579, -0.6669998},
	{-0.7491365, -0.6624156},
	{-0.7531869, -0.6578065},
	{-0.7572090, -0.6531727},
	{-0.7612025, -0.6485142},
	{-0.7651674, -0.6438314},
	{-0.7691035, -0.6391242},
	{-0.7730106, -0.6343930},
	{-0.7768887, -0.6296380},
	{-0.7807374, -0.6248592},
	{-0.7845568, -0.6200569},
	{-0.7883466, -0.6152313},
	{-0.7921068, -0.6103825},
	{-0.7958372, -0.6055107},
	{-0.7995374, -0.6006163},
	{-0.8032076, -0.5956991},
	{-0.8068477, -0.5907595},
	{-0.8104573, -0.5857977},
	{-0.8140365, -0.5808138},
	{-0.8175849, -0.5758080},
	{-0.8211027, -0.5707805},
	{-0.8245895, -0.5657316},
	{-0.8280452, -0.5606613},
	{-0.8314698, -0.5555699},
	{-0.8348631, -0.5504577},
	{-0.8382249, -0.5453247},
	{-0.8415552, -0.5401711},
	{-0.8448538, -0.5349973},
	{-0.8481205, -0.5298035},
	{-0.8513553, -0.5245895},
	{-0.8545581, -0.5193558},
	{-0.8577287, -0.5141026},
	{-0.8608671, -0.5088300},
	{-0.8639730, -0.5035381},
	{-0.8670464, -0.4982274},
	{-0.8700871, -0.4928979},
	{-0.8730952, -0.4875499},
	{-0.8760703, -0.4821835},
	{-0.8790124, -0.4767989},
	{-0.8819214, -0.4713964},
	{-0.8847973, -0.4659761},
	{-0.8876398, -0.4605384},
	{-0.8904488, -0.4550834},
	{-0.8932244, -0.4496112},
	{-0.8959664, -0.4441220},
	{-0.8986745, -0.4386160},
	{-0.9013489, -0.4330936},
	{-0.9039894, -0.4275548},
	{-0.9065958, -0.4220000},
	{-0.9091681, -0.4164293},
	{-0.9117061, -0.4108429},
	{-0.9142099, -0.4052410},
	{-0.9166792, -0.3996239},
	{-0.9191140, -0.3939917},
	{-0.9215142, -0.3883447},
	{-0.9238797, -0.3826831},
	{-0.9262104, -0.3770070},
	{-0.9285061, -0.3713170},
	{-0.9307671, -0.3656128},
	{-0.9329929, -0.3598948},
	{-0.9351836, -0.3541633},
	{-0.9373391, -0.3484184},
	{-0.9394593, -0.3426605},
	{-0.9415442, -0.3368896},
	{-0.9435936, -0.3311060},
	{-0.9456074, -0.3253100},
	{-0.9475857, -0.3195017},
	{-0.9495283, -0.3136814},
	{-0.9514351, -0.3078493},
	{-0.9533061, -0.3020056},
	{-0.9551413, -0.2961505},
	{-0.9569404, -0.2902845},
	{-0.9587035, -0.2844073},
	{-0.9604306, -0.2785195},
	{-0.9621215, -0.2726211},
	{-0.9637761, -0.2667125},
	{-0.9653945, -0.2607938},
	{-0.9669765, -0.2548653},
	{-0.9685222, -0.2489273},
	{-0.9700313, -0.2429798},
	{-0.9715040, -0.2370232},
	{-0.9729400, -0.2310577},
	{-0.9743395, -0.2250835},
	{-0.9757022, -0.2191008},
	{-0.9770283, -0.2131099},
	{-0.9783174, -0.2071112},
	{-0.9795698, -0.2011044},
	{-0.9807853, -0.1950901},
	{-0.9819639, -0.1890684},
	{-0.9831055, -0.1830396},
	{-0.9842101, -0.1770039},
	{-0.9852777, -0.1709616},
	{-0.9863082, -0.1649128},
	{-0.9873015, -0.1588578},
	{-0.9882576, -0.1527968},
	{-0.9891766, -0.1467301},
	{-0.9900582, -0.1406578},
	{-0.9909027, -0.1345803},
	{-0.9917098, -0.1284977},
	{-0.9924796, -0.1224105},
	{-0.9932120, -0.1163184},
	{-0.9939070, -0.1102220},
	{-0.9945646, -0.1041214},
	{-0.9951848, -0.0980169},
	{-0.9957674, -0.0919087},
	{-0.9963126, -0.0857970},
	{-0.9968203, -0.0796821},
	{-0.9972905, -0.0735642},
	{-0.9977231, -0.0674435},
	{-0.9981182, -0.0613203},
	{-0.9984756, -0.0551948},
	{-0.9987954, -0.0490673},
	{-0.9990777, -0.0429378},
	{-0.9993224, -0.0368068},
	{-0.9995294, -0.0306746},
	{-0.9996988, -0.0245410},
	{-0.9998306, -0.0184065},
	{-0.9999247, -0.0122712},
	{-0.9999812, -0.0061356},
};
static const struct C W2048[1024]={
	{1.0000000, -0.0000000},
	{0.9999953, -0.0030680},
	{0.9999812, -0.0061359},
	{0.9999576, -0.0092038},
	{0.9999247, -0.0122715},
	{0.9998823, -0.0153392},
	{0.9998306, -0.0184067},
	{0.9997694, -0.0214741},
	{0.9996988, -0.0245412},
	{0.9996188, -0.0276081},
	{0.9995294, -0.0306748},
	{0.9994306, -0.0337412},
	{0.9993224, -0.0368072},
	{0.9992048, -0.0398729},
	{0.9990777, -0.0429383},
	{0.9989413, -0.0460032},
	{0.9987954, -0.0490677},
	{0.9986402, -0.0521317},
	{0.9984756, -0.0551953},
	{0.9983016, -0.0582583},
	{0.9981181, -0.0613207},
	{0.9979253, -0.0643826},
	{0.9977230, -0.0674439},
	{0.9975114, -0.0705046},
	{0.9972904, -0.0735646},
	{0.9970601, -0.0766239},
	{0.9968203, -0.0796824},
	{0.9965711, -0.0827403},
	{0.9963126, -0.0857973},
	{0.9960447, -0.0888536},
	{0.9957674, -0.0919090},
	{0.9954808, -0.0949635},
	{0.9951847, -0.0980171},
	{0.9948793, -0.1010699},
	{0.9945646, -0.1041216},
	{0.9942405, -0.1071724},
	{0.9939070, -0.1102222},
	{0.9935641, -0.1132710},
	{0.9932119, -0.1163186},
	{0.9928504, -0.1193652},
	{0.9924796, -0.1224107},
	{0.9920993, -0.1254550},
	{0.9917098, -0.1284981},
	{0.9913108, -0.1315400},
	{0.9909027, -0.1345807},
	{0.9904851, -0.1376201},
	{0.9900582, -0.1406583},
	{0.9896220, -0.1436951},
	{0.9891765, -0.1467305},
	{0.9887217, -0.1497646},
	{0.9882576, -0.1527972},
	{0.9877841, -0.1558284},
	{0.9873014, -0.1588582},
	{0.9868094, -0.1618864},
	{0.9863081, -0.1649131},
	{0.9857975, -0.1679383},
	{0.9852777, -0.1709619},
	{0.9847485, -0.1739839},
	{0.9842101, -0.1770042},
	{0.9836624, -0.1800229},
	{0.9831055, -0.1830399},
	{0.9825393, -0.1860552},
	{0.9819639, -0.1890687},
	{0.9813792, -0.1920804},
	{0.9807853, -0.1950903},
	{0.9801821, -0.1980984},
	{0.9795697, -0.2011047},
	{0.9789482, -0.2041090},
	{0.9783174, -0.2071114},
	{0.9776773, -0.2101119},
	{0.9770281, -0.2131103},
	{0.9763697, -0.2161068},
	{0.9757021, -0.2191013},
	{0.9750254, -0.2220936},
	{0.9743394, -0.2250839},
	{0.9736443, -0.2280721},
	{0.9729400, -0.2310581},
	{0.9722265, -0.2340420},
	{0.9715039, -0.2370236},
	{0.9707721, -0.2400030},
	{0.9700313, -0.2429802},
	{0.9692813, -0.2459551},
	{0.9685221, -0.2489276},
	{0.9677538, -0.2518978},
	{0.9669765, -0.2548657},
	{0.9661900, -0.2578311},
	{0.9653944, -0.2607942},
	{0.9645898, -0.2637547},
	{0.9637761, -0.2667128},
	{0.9629533, -0.2696683},
	{0.9621214, -0.2726214},
	{0.9612805, -0.2755718},
	{0.9604305, -0.2785197},
	{0.9595715, -0.2814650},
	{0.9587035, -0.2844076},
	{0.9578264, -0.2873475},
	{0.9569404, -0.2902847},
	{0.9560452, -0.2932192},
	{0.9551411, -0.2961509},
	{0.9542281, -0.2990799},
	{0.9533060, -0.3020060},
	{0.9523750, -0.3049293},
	{0.9514350, -0.3078497},
	{0.9504861, -0.3107672},
	{0.9495282, -0.3136818},
	{0.9485613, -0.3165934},
	{0.9475856, -0.3195021},
	{0.9466009, -0.3224077},
	{0.9456073, -0.3253103},
	{0.9446048, -0.3282099},
	{0.9435934, -0.3311063},
	{0.9425732, -0.3339997},
	{0.9415441, -0.3368899},
	{0.9405060, -0.3397769},
	{0.9394592, -0.3426608},
	{0.9384035, -0.3455414},
	{0.9373390, -0.3484187},
	{0.9362656, -0.3512928},
	{0.9351835, -0.3541636},
	{0.9340925, -0.3570310},
	{0.9329928, -0.3598951},
	{0.9318842, -0.3627558},
	{0.9307669, -0.3656130},
	{0.9296409, -0.3684669},
	{0.9285061, -0.3713172},
	{0.9273625, -0.3741641},
	{0.9262102, -0.3770075},
	{0.9250492, -0.3798472},
	{0.9238795, -0.3826835},
	{0.9227011, -0.3855161},
	{0.9215140, -0.3883451},
	{0.9203182, -0.3911704},
	{0.9191138, -0.3939921},
	{0.9179007, -0.3968100},
	{0.9166790, -0.3996242},
	{0.9154487, -0.4024347},
	{0.9142097, -0.4052414},
	{0.9129621, -0.4080442},
	{0.9117060, -0.4108432},
	{0.9104413, -0.4136384},
	{0.9091679, -0.4164296},
	{0.9078861, -0.4192169},
	{0.9065957, -0.4220003},
	{0.9052967, -0.4247797},
	{0.9039893, -0.4275551},
	{0.9026733, -0.4303265},
	{0.9013488, -0.4330939},
	{0.9000159, -0.4358571},
	{0.8986744, -0.4386163},
	{0.8973246, -0.4413713},
	{0.8959662, -0.4441222},
	{0.8945994, -0.4468689},
	{0.8932243, -0.4496114},
	{0.8918407, -0.4523496},
	{0.8904487, -0.4550836},
	{0.8890483, -0.4578134},
	{0.8876396, -0.4605387},
	{0.8862225, -0.4632598},
	{0.8847971, -0.4659766},
	{0.8833633, -0.4686888},
	{0.8819212, -0.4713968},
	{0.8804709, -0.4741003},
	{0.8790122, -0.4767993},
	{0.8775453, -0.4794938},
	{0.8760701, -0.4821838},
	{0.8745866, -0.4848693},
	{0.8730949, -0.4875502},
	{0.8715950, -0.4902266},
	{0.8700870, -0.4928982},
	{0.8685707, -0.4955653},
	{0.8670462, -0.4982277},
	{0.8655136, -0.5008854},
	{0.8639728, -0.5035384},
	{0.8624239, -0.5061867},
	{0.8608669, -0.5088302},
	{0.8593018, -0.5114689},
	{0.8577286, -0.5141028},
	{0.8561473, -0.5167319},
	{0.8545579, -0.5193560},
	{0.8529606, -0.5219753},
	{0.8513551, -0.5245898},
	{0.8497417, -0.5271992},
	{0.8481203, -0.5298036},
	{0.8464909, -0.5324032},
	{0.8448535, -0.5349976},
	{0.8432082, -0.5375871},
	{0.8415549, -0.5401715},
	{0.8398938, -0.5427508},
	{0.8382246, -0.5453250},
	{0.8365477, -0.5478941},
	{0.8348628, -0.5504580},
	{0.8331701, -0.5530167},
	{0.8314696, -0.5555703},
	{0.8297612, -0.5581186},
	{0.8280450, -0.5606616},
	{0.8263210, -0.5631994},
	{0.8245893, -0.5657319},
	{0.8228498, -0.5682590},
	{0.8211025, -0.5707808},
	{0.8193475, -0.5732972},
	{0.8175848, -0.5758082},
	{0.8158144, -0.5783139},
	{0.8140363, -0.5808140},
	{0.8122506, -0.5833088},
	{0.8104572, -0.5857979},
	{0.8086562, -0.5882816},
	{0.8068475, -0.5907598},
	{0.8050313, -0.5932323},
	{0.8032075, -0.5956994},
	{0.8013761, -0.5981608},
	{0.7995372, -0.6006166},
	{0.7976908, -0.6030666},
	{0.7958369, -0.6055111},
	{0.7939754, -0.6079499},
	{0.7921065, -0.6103829},
	{0.7902302, -0.6128101},
	{0.7883464, -0.6152316},
	{0.7864552, -0.6176474},
	{0.7845566, -0.6200572},
	{0.7826506, -0.6224613},
	{0.7807372, -0.6248595},
	{0.7788165, -0.6272519},
	{0.7768884, -0.6296383},
	{0.7749531, -0.6320188},
	{0.7730104, -0.6343933},
	{0.7710605, -0.6367619},
	{0.7691033, -0.6391245},
	{0.7671389, -0.6414810},
	{0.7651672, -0.6438316},
	{0.7631884, -0.6461761},
	{0.7612023, -0.6485144},
	{0.7592091, -0.6508468},
	{0.7572088, -0.6531729},
	{0.7552013, -0.6554929},
	{0.7531868, -0.6578068},
	{0.7511651, -0.6601144},
	{0.7491363, -0.6624159},
	{0.7471005, -0.6647111},
	{0.7450577, -0.6670000},
	{0.7430079, -0.6692826},
	{0.7409511, -0.6715590},
	{0.7388873, -0.6738291},
	{0.7368165, -0.6760927},
	{0.7347388, -0.6783501},
	{0.7326542, -0.6806011},
	{0.7305627, -0.6828457},
	{0.7284644, -0.6850837},
	{0.7263591, -0.6873154},
	{0.7242470, -0.6895406},
	{0.7221282, -0.6917593},
	{0.7200025, -0.6939715},
	{0.7178700, -0.6961772},
	{0.7157307, -0.6983763},
	{0.7135848, -0.7005689},
	{0.7114322, -0.7027548},
	{0.7092728, -0.7049341},
	{0.7071067, -0.7071068},
	{0.7049340, -0.7092729},
	{0.7027547, -0.7114323},
	{0.7005687, -0.7135850},
	{0.6983762, -0.7157309},
	{0.6961771, -0.7178701},
	{0.6939714, -0.7200025},
	{0.6917592, -0.7221283},
	{0.6895405, -0.7242472},
	{0.6873153, -0.7263592},
	{0.6850836, -0.7284645},
	{0.6828455, -0.7305629},
	{0.6806009, -0.7326543},
	{0.6783500, -0.7347389},
	{0.6760926, -0.7368166},
	{0.6738290, -0.7388874},
	{0.6715589, -0.7409512},
	{0.6692825, -0.7430080},
	{0.6669998, -0.7450579},
	{0.6647109, -0.7471007},
	{0.6624157, -0.7491364},
	{0.6601143, -0.7511652},
	{0.6578066, -0.7531869},
	{0.6554928, -0.7552015},
	{0.6531727, -0.7572089},
	{0.6508466, -0.7592093},
	{0.6485143, -0.7612025},
	{0.6461760, -0.7631885},
	{0.6438315, -0.7651673},
	{0.6414809, -0.7671390},
	{0.6391244, -0.7691034},
	{0.6367618, -0.7710606},
	{0.6343932, -0.7730106},
	{0.6320187, -0.7749531},
	{0.6296382, -0.7768885},
	{0.6272517, -0.7788166},
	{0.6248594, -0.7807373},
	{0.6224612, -0.7826506},
	{0.6200571, -0.7845567},
	{0.6176472, -0.7864553},
	{0.6152315, -0.7883465},
	{0.6128100, -0.7902303},
	{0.6103827, -0.7921066},
	{0.6079497, -0.7939755},
	{0.6055110, -0.7958370},
	{0.6030665, -0.7976909},
	{0.6006164, -0.7995374},
	{0.5981606, -0.8013762},
	{0.5956993, -0.8032076},
	{0.5932322, -0.8050314},
	{0.5907596, -0.8068476},
	{0.5882815, -0.8086562},
	{0.5857978, -0.8104573},
	{0.5833086, -0.8122507},
	{0.5808138, -0.8140364},
	{0.5783137, -0.8158144},
	{0.5758081, -0.8175849},
	{0.5732971, -0.8193476},
	{0.5707806, -0.8211026},
	{0.5682589, -0.8228499},
	{0.5657317, -0.8245894},
	{0.5631992, -0.8263211},
	{0.5606615, -0.8280451},
	{0.5581185, -0.8297613},
	{0.5555701, -0.8314697},
	{0.5530166, -0.8331702},
	{0.5504579, -0.8348629},
	{0.5478939, -0.8365478},
	{0.5453249, -0.8382248},
	{0.5427507, -0.8398938},
	{0.5401714, -0.8415550},
	{0.5375870, -0.8432083},
	{0.5349975, -0.8448536},
	{0.5324031, -0.8464910},
	{0.5298035, -0.8481204},
	{0.5271990, -0.8497418},
	{0.5245895, -0.8513553},
	{0.5219752, -0.8529607},
	{0.5193558, -0.8545581},
	{0.5167317, -0.8561474},
	{0.5141027, -0.8577287},
	{0.5114688, -0.8593019},
	{0.5088301, -0.8608670},
	{0.5061865, -0.8624240},
	{0.5035383, -0.8639729},
	{0.5008853, -0.8655137},
	{0.4982276, -0.8670463},
	{0.4955651, -0.8685707},
	{0.4928981, -0.8700870},
	{0.4902264, -0.8715951},
	{0.4875500, -0.8730950},
	{0.4848691, -0.8745867},
	{0.4821836, -0.8760702},
	{0.4794936, -0.8775454},
	{0.4767992, -0.8790123},
	{0.4741001, -0.8804709},
	{0.4713967, -0.8819213},
	{0.4686888, -0.8833634},
	{0.4659764, -0.8847972},
	{0.4632597, -0.8862226},
	{0.4605386, -0.8876397},
	{0.4578132, -0.8890484},
	{0.4550835, -0.8904488},
	{0.4523495, -0.8918408},
	{0.4496112, -0.8932244},
	{0.4468687, -0.8945996},
	{0.4441220, -0.8959664},
	{0.4413711, -0.8973247},
	{0.4386162, -0.8986745},
	{0.4358570, -0.9000160},
	{0.4330938, -0.9013489},
	{0.4303264, -0.9026734},
	{0.4275550, -0.9039893},
	{0.4247796, -0.9052968},
	{0.4220002, -0.9065958},
	{0.4192168, -0.9078861},
	{0.4164294, -0.9091681},
	{0.4136382, -0.9104413},
	{0.4108430, -0.9117061},
	{0.4080440, -0.9129623},
	{0.4052412, -0.9142098},
	{0.4024345, -0.9154488},
	{0.3996241, -0.9166791},
	{0.3968099, -0.9179008},
	{0.3939919, -0.9191139},
	{0.3911703, -0.9203183},
	{0.3883449, -0.9215141},
	{0.3855160, -0.9227012},
	{0.3826833, -0.9238796},
	{0.3798471, -0.9250493},
	{0.3770073, -0.9262103},
	{0.3741639, -0.9273626},
	{0.3713171, -0.9285061},
	{0.3684667, -0.9296409},
	{0.3656128, -0.9307670},
	{0.3627556, -0.9318843},
	{0.3598949, -0.9329929},
	{0.3570309, -0.9340926},
	{0.3541634, -0.9351835},
	{0.3512927, -0.9362657},
	{0.3484186, -0.9373391},
	{0.3455412, -0.9384035},
	{0.3426606, -0.9394593},
	{0.3397768, -0.9405061},
	{0.3368897, -0.9415441},
	{0.3339995, -0.9425732},
	{0.3311062, -0.9435935},
	{0.3282097, -0.9446049},
	{0.3253101, -0.9456074},
	{0.3224075, -0.9466010},
	{0.3195018, -0.9475856},
	{0.3165933, -0.9485614},
	{0.3136817, -0.9495282},
	{0.3107671, -0.9504861},
	{0.3078495, -0.9514350},
	{0.3049291, -0.9523751},
	{0.3020058, -0.9533061},
	{0.2990797, -0.9542282},
	{0.2961507, -0.9551412},
	{0.2932190, -0.9560453},
	{0.2902845, -0.9569404},
	{0.2873473, -0.9578264},
	{0.2844074, -0.9587035},
	{0.2814648, -0.9595715},
	{0.2785195, -0.9604306},
	{0.2755717, -0.9612805},
	{0.2726213, -0.9621214},
	{0.2696682, -0.9629533},
	{0.2667126, -0.9637761},
	{0.2637546, -0.9645898},
	{0.2607940, -0.9653945},
	{0.2578310, -0.9661900},
	{0.2548655, -0.9669765},
	{0.2518977, -0.9677539},
	{0.2489274, -0.9685221},
	{0.2459549, -0.9692813},
	{0.2429800, -0.9700313},
	{0.2400028, -0.9707722},
	{0.2370234, -0.9715039},
	{0.2340419, -0.9722265},
	{0.2310580, -0.9729400},
	{0.2280720, -0.9736443},
	{0.2250838, -0.9743394},
	{0.2220935, -0.9750254},
	{0.2191011, -0.9757022},
	{0.2161067, -0.9763697},
	{0.2131102, -0.9770282},
	{0.2101117, -0.9776774},
	{0.2071112, -0.9783174},
	{0.2041088, -0.9789482},
	{0.2011044, -0.9795698},
	{0.1980982, -0.9801822},
	{0.1950901, -0.9807853},
	{0.1920802, -0.9813792},
	{0.1890686, -0.9819639},
	{0.1860550, -0.9825393},
	{0.1830398, -0.9831055},
	{0.1800228, -0.9836624},
	{0.1770041, -0.9842101},
	{0.1739837, -0.9847485},
	{0.1709617, -0.9852777},
	{0.1679381, -0.9857975},
	{0.1649130, -0.9863081},
	{0.1618862, -0.9868094},
	{0.1588580, -0.9873015},
	{0.1558282, -0.9877841},
	{0.1527970, -0.9882576},
	{0.1497643, -0.9887217},
	{0.1467304, -0.9891765},
	{0.1436949, -0.9896221},
	{0.1406581, -0.9900582},
	{0.1376200, -0.9904851},
	{0.1345806, -0.9909027},
	{0.1315399, -0.9913109},
	{0.1284980, -0.9917098},
	{0.1254548, -0.9920993},
	{0.1224105, -0.9924796},
	{0.1193650, -0.9928504},
	{0.1163184, -0.9932120},
	{0.1132708, -0.9935641},
	{0.1102220, -0.9939070},
	{0.1071722, -0.9942405},
	{0.1041215, -0.9945646},
	{0.1010697, -0.9948794},
	{0.0980170, -0.9951847},
	{0.0949634, -0.9954808},
	{0.0919088, -0.9957674},
	{0.0888534, -0.9960447},
	{0.0857972, -0.9963126},
	{0.0827401, -0.9965712},
	{0.0796823, -0.9968203},
	{0.0766237, -0.9970601},
	{0.0735644, -0.9972905},
	{0.0705044, -0.9975114},
	{0.0674437, -0.9977231},
	{0.0643824, -0.9979253},
	{0.0613206, -0.9981181},
	{0.0582581, -0.9983016},
	{0.0551951, -0.9984756},
	{0.0521316, -0.9986402},
	{0.0490675, -0.9987954},
	{0.0460030, -0.9989413},
	{0.0429381, -0.9990777},
	{0.0398728, -0.9992048},
	{0.0368070, -0.9993224},
	{0.0337410, -0.9994306},
	{0.0306746, -0.9995294},
	{0.0276079, -0.9996188},
	{0.0245410, -0.9996988},
	{0.0214739, -0.9997694},
	{0.0184065, -0.9998306},
	{0.0153391, -0.9998823},
	{0.0122714, -0.9999247},
	{0.0092036, -0.9999576},
	{0.0061357, -0.9999812},
	{0.0030678, -0.9999953},
	{-0.0000002, -1.0000000},
	{-0.0030681, -0.9999953},
	{-0.0061361, -0.9999812},
	{-0.0092039, -0.9999576},
	{-0.0122717, -0.9999247},
	{-0.0153394, -0.9998823},
	{-0.0184069, -0.9998306},
	{-0.0214743, -0.9997694},
	{-0.0245415, -0.9996988},
	{-0.0276083, -0.9996188},
	{-0.0306749, -0.9995294},
	{-0.0337413, -0.9994306},
	{-0.0368074, -0.9993224},
	{-0.0398731, -0.9992048},
	{-0.0429384, -0.9990777},
	{-0.0460034, -0.9989413},
	{-0.0490679, -0.9987954},
	{-0.0521319, -0.9986402},
	{-0.0551954, -0.9984756},
	{-0.0582585, -0.9983015},
	{-0.0613210, -0.9981181},
	{-0.0643829, -0.9979253},
	{-0.0674442, -0.9977230},
	{-0.0705047, -0.9975114},
	{-0.0735647, -0.9972904},
	{-0.0766240, -0.9970601},
	{-0.0796826, -0.9968203},
	{-0.0827404, -0.9965711},
	{-0.0857975, -0.9963126},
	{-0.0888537, -0.9960447},
	{-0.0919091, -0.9957674},
	{-0.0949637, -0.9954807},
	{-0.0980173, -0.9951847},
	{-0.1010701, -0.9948793},
	{-0.1041219, -0.9945645},
	{-0.1071727, -0.9942404},
	{-0.1102224, -0.9939069},
	{-0.1132711, -0.9935641},
	{-0.1163188, -0.9932119},
	{-0.1193654, -0.9928504},
	{-0.1224108, -0.9924795},
	{-0.1254551, -0.9920993},
	{-0.1284983, -0.9917097},
	{-0.1315402, -0.9913108},
	{-0.1345809, -0.9909026},
	{-0.1376203, -0.9904851},
	{-0.1406584, -0.9900582},
	{-0.1436953, -0.9896220},
	{-0.1467307, -0.9891765},
	{-0.1497648, -0.9887217},
	{-0.1527974, -0.9882575},
	{-0.1558286, -0.9877841},
	{-0.1588583, -0.9873014},
	{-0.1618865, -0.9868094},
	{-0.1649133, -0.9863081},
	{-0.1679385, -0.9857975},
	{-0.1709621, -0.9852776},
	{-0.1739841, -0.9847485},
	{-0.1770044, -0.9842101},
	{-0.1800231, -0.9836624},
	{-0.1830401, -0.9831054},
	{-0.1860554, -0.9825392},
	{-0.1890689, -0.9819638},
	{-0.1920806, -0.9813792},
	{-0.1950906, -0.9807853},
	{-0.1980987, -0.9801821},
	{-0.2011048, -0.9795697},
	{-0.2041091, -0.9789481},
	{-0.2071115, -0.9783173},
	{-0.2101120, -0.9776773},
	{-0.2131105, -0.9770281},
	{-0.2161070, -0.9763697},
	{-0.2191014, -0.9757021},
	{-0.2220938, -0.9750253},
	{-0.2250841, -0.9743393},
	{-0.2280723, -0.9736442},
	{-0.2310583, -0.9729399},
	{-0.2340422, -0.9722264},
	{-0.2370238, -0.9715039},
	{-0.2400033, -0.9707721},
	{-0.2429803, -0.9700312},
	{-0.2459552, -0.9692812},
	{-0.2489278, -0.9685221},
	{-0.2518980, -0.9677538},
	{-0.2548658, -0.9669764},
	{-0.2578313, -0.9661900},
	{-0.2607943, -0.9653944},
	{-0.2637549, -0.9645897},
	{-0.2667130, -0.9637760},
	{-0.2696685, -0.9629532},
	{-0.2726216, -0.9621214},
	{-0.2755721, -0.9612804},
	{-0.2785199, -0.9604304},
	{-0.2814652, -0.9595714},
	{-0.2844077, -0.9587035},
	{-0.2873476, -0.9578264},
	{-0.2902848, -0.9569403},
	{-0.2932193, -0.9560452},
	{-0.2961511, -0.9551411},
	{-0.2990800, -0.9542280},
	{-0.3020061, -0.9533060},
	{-0.3049294, -0.9523749},
	{-0.3078499, -0.9514350},
	{-0.3107674, -0.9504860},
	{-0.3136820, -0.9495281},
	{-0.3165936, -0.9485613},
	{-0.3195023, -0.9475855},
	{-0.3224079, -0.9466009},
	{-0.3253106, -0.9456072},
	{-0.3282100, -0.9446048},
	{-0.3311065, -0.9435934},
	{-0.3339998, -0.9425731},
	{-0.3368900, -0.9415440},
	{-0.3397771, -0.9405060},
	{-0.3426609, -0.9394591},
	{-0.3455415, -0.9384035},
	{-0.3484189, -0.9373389},
	{-0.3512930, -0.9362656},
	{-0.3541637, -0.9351834},
	{-0.3570312, -0.9340925},
	{-0.3598953, -0.9329927},
	{-0.3627560, -0.9318842},
	{-0.3656133, -0.9307669},
	{-0.3684670, -0.9296408},
	{-0.3713174, -0.9285060},
	{-0.3741642, -0.9273624},
	{-0.3770076, -0.9262102},
	{-0.3798474, -0.9250492},
	{-0.3826836, -0.9238794},
	{-0.3855163, -0.9227011},
	{-0.3883452, -0.9215140},
	{-0.3911706, -0.9203182},
	{-0.3939922, -0.9191138},
	{-0.3968102, -0.9179007},
	{-0.3996244, -0.9166790},
	{-0.4024349, -0.9154486},
	{-0.4052415, -0.9142097},
	{-0.4080443, -0.9129621},
	{-0.4108433, -0.9117060},
	{-0.4136385, -0.9104412},
	{-0.4164297, -0.9091679},
	{-0.4192171, -0.9078860},
	{-0.4220005, -0.9065956},
	{-0.4247799, -0.9052967},
	{-0.4275553, -0.9039892},
	{-0.4303267, -0.9026732},
	{-0.4330940, -0.9013488},
	{-0.4358573, -0.9000158},
	{-0.4386165, -0.8986744},
	{-0.4413715, -0.8973244},
	{-0.4441224, -0.8959661},
	{-0.4468691, -0.8945994},
	{-0.4496116, -0.8932242},
	{-0.4523499, -0.8918406},
	{-0.4550839, -0.8904486},
	{-0.4578136, -0.8890482},
	{-0.4605390, -0.8876395},
	{-0.4632601, -0.8862224},
	{-0.4659768, -0.8847969},
	{-0.4686889, -0.8833633},
	{-0.4713968, -0.8819212},
	{-0.4741003, -0.8804708},
	{-0.4767994, -0.8790122},
	{-0.4794939, -0.8775452},
	{-0.4821839, -0.8760700},
	{-0.4848694, -0.8745866},
	{-0.4875503, -0.8730949},
	{-0.4902267, -0.8715950},
	{-0.4928984, -0.8700869},
	{-0.4955654, -0.8685706},
	{-0.4982279, -0.8670461},
	{-0.5008855, -0.8655135},
	{-0.5035386, -0.8639727},
	{-0.5061868, -0.8624238},
	{-0.5088304, -0.8608668},
	{-0.5114691, -0.8593017},
	{-0.5141030, -0.8577285},
	{-0.5167320, -0.8561472},
	{-0.5193563, -0.8545579},
	{-0.5219755, -0.8529605},
	{-0.5245900, -0.8513550},
	{-0.5271994, -0.8497416},
	{-0.5298039, -0.8481202},
	{-0.5324034, -0.8464907},
	{-0.5349979, -0.8448534},
	{-0.5375873, -0.8432081},
	{-0.5401717, -0.8415548},
	{-0.5427509, -0.8398938},
	{-0.5453251, -0.8382246},
	{-0.5478942, -0.8365477},
	{-0.5504581, -0.8348628},
	{-0.5530168, -0.8331701},
	{-0.5555704, -0.8314695},
	{-0.5581187, -0.8297611},
	{-0.5606617, -0.8280450},
	{-0.5631995, -0.8263209},
	{-0.5657320, -0.8245892},
	{-0.5682591, -0.8228497},
	{-0.5707809, -0.8211024},
	{-0.5732973, -0.8193474},
	{-0.5758084, -0.8175847},
	{-0.5783140, -0.8158143},
	{-0.5808142, -0.8140362},
	{-0.5833089, -0.8122504},
	{-0.5857981, -0.8104571},
	{-0.5882818, -0.8086560},
	{-0.5907599, -0.8068474},
	{-0.5932325, -0.8050312},
	{-0.5956995, -0.8032073},
	{-0.5981610, -0.8013760},
	{-0.6006168, -0.7995371},
	{-0.6030669, -0.7976906},
	{-0.6055113, -0.7958367},
	{-0.6079500, -0.7939753},
	{-0.6103831, -0.7921063},
	{-0.6128104, -0.7902300},
	{-0.6152317, -0.7883464},
	{-0.6176474, -0.7864552},
	{-0.6200573, -0.7845565},
	{-0.6224614, -0.7826505},
	{-0.6248596, -0.7807371},
	{-0.6272520, -0.7788164},
	{-0.6296384, -0.7768884},
	{-0.6320189, -0.7749530},
	{-0.6343935, -0.7730103},
	{-0.6367620, -0.7710604},
	{-0.6391246, -0.7691032},
	{-0.6414812, -0.7671388},
	{-0.6438317, -0.7651671},
	{-0.6461762, -0.7631882},
	{-0.6485146, -0.7612022},
	{-0.6508469, -0.7592090},
	{-0.6531730, -0.7572086},
	{-0.6554931, -0.7552012},
	{-0.6578069, -0.7531866},
	{-0.6601146, -0.7511649},
	{-0.6624160, -0.7491362},
	{-0.6647112, -0.7471004},
	{-0.6670002, -0.7450576},
	{-0.6692829, -0.7430077},
	{-0.6715592, -0.7409509},
	{-0.6738293, -0.7388871},
	{-0.6760930, -0.7368163},
	{-0.6783503, -0.7347386},
	{-0.6806011, -0.7326542},
	{-0.6828457, -0.7305627},
	{-0.6850838, -0.7284643},
	{-0.6873155, -0.7263591},
	{-0.6895407, -0.7242470},
	{-0.6917594, -0.7221281},
	{-0.6939716, -0.7200024},
	{-0.6961773, -0.7178699},
	{-0.6983764, -0.7157307},
	{-0.7005690, -0.7135847},
	{-0.7027549, -0.7114320},
	{-0.7049342, -0.7092727},
	{-0.7071069, -0.7071066},
	{-0.7092730, -0.7049339},
	{-0.7114324, -0.7027546},
	{-0.7135851, -0.7005686},
	{-0.7157310, -0.6983761},
	{-0.7178702, -0.6961769},
	{-0.7200027, -0.6939713},
	{-0.7221284, -0.6917590},
	{-0.7242473, -0.6895403},
	{-0.7263594, -0.6873151},
	{-0.7284646, -0.6850834},
	{-0.7305630, -0.6828453},
	{-0.7326545, -0.6806008},
	{-0.7347391, -0.6783498},
	{-0.7368168, -0.6760924},
	{-0.7388875, -0.6738287},
	{-0.7409514, -0.6715587},
	{-0.7430081, -0.6692825},
	{-0.7450579, -0.6669998},
	{-0.7471007, -0.6647109},
	{-0.7491365, -0.6624156},
	{-0.7511653, -0.6601142},
	{-0.7531869, -0.6578065},
	{-0.7552015, -0.6554927},
	{-0.7572090, -0.6531727},
	{-0.7592093, -0.6508465},
	{-0.7612025, -0.6485142},
	{-0.7631886, -0.6461758},
	{-0.7651674, -0.6438314},
	{-0.7671391, -0.6414808},
	{-0.7691035, -0.6391242},
	{-0.7710607, -0.6367617},
	{-0.7730106, -0.6343930},
	{-0.7749533, -0.6320185},
	{-0.7768887, -0.6296380},
	{-0.7788167, -0.6272516},
	{-0.7807374, -0.6248592},
	{-0.7826508, -0.6224610},
	{-0.7845568, -0.6200569},
	{-0.7864555, -0.6176471},
	{-0.7883466, -0.6152313},
	{-0.7902305, -0.6128098},
	{-0.7921068, -0.6103825},
	{-0.7939757, -0.6079495},
	{-0.7958372, -0.6055107},
	{-0.7976909, -0.6030664},
	{-0.7995374, -0.6006163},
	{-0.8013763, -0.5981606},
	{-0.8032076, -0.5956991},
	{-0.8050314, -0.5932322},
	{-0.8068477, -0.5907595},
	{-0.8086563, -0.5882814},
	{-0.8104573, -0.5857977},
	{-0.8122507, -0.5833085},
	{-0.8140365, -0.5808138},
	{-0.8158146, -0.5783136},
	{-0.8175849, -0.5758080},
	{-0.8193477, -0.5732970},
	{-0.8211027, -0.5707805},
	{-0.8228499, -0.5682587},
	{-0.8245895, -0.5657316},
	{-0.8263212, -0.5631991},
	{-0.8280452, -0.5606613},
	{-0.8297614, -0.5581183},
	{-0.8314698, -0.5555699},
	{-0.8331704, -0.5530164},
	{-0.8348631, -0.5504577},
	{-0.8365479, -0.5478938},
	{-0.8382249, -0.5453247},
	{-0.8398940, -0.5427505},
	{-0.8415552, -0.5401711},
	{-0.8432084, -0.5375867},
	{-0.8448538, -0.5349973},
	{-0.8464912, -0.5324028},
	{-0.8481205, -0.5298035},
	{-0.8497419, -0.5271990},
	{-0.8513553, -0.5245895},
	{-0.8529607, -0.5219751},
	{-0.8545581, -0.5193558},
	{-0.8561475, -0.5167316},
	{-0.8577287, -0.5141026},
	{-0.8593019, -0.5114686},
	{-0.8608671, -0.5088300},
	{-0.8624241, -0.5061864},
	{-0.8639730, -0.5035381},
	{-0.8655137, -0.5008851},
	{-0.8670464, -0.4982274},
	{-0.8685709, -0.4955650},
	{-0.8700871, -0.4928979},
	{-0.8715953, -0.4902262},
	{-0.8730952, -0.4875499},
	{-0.8745868, -0.4848690},
	{-0.8760703, -0.4821835},
	{-0.8775455, -0.4794935},
	{-0.8790124, -0.4767989},
	{-0.8804711, -0.4740999},
	{-0.8819214, -0.4713964},
	{-0.8833635, -0.4686885},
	{-0.8847973, -0.4659761},
	{-0.8862227, -0.4632594},
	{-0.8876398, -0.4605384},
	{-0.8890485, -0.4578129},
	{-0.8904488, -0.4550834},
	{-0.8918408, -0.4523494},
	{-0.8932244, -0.4496112},
	{-0.8945996, -0.4468687},
	{-0.8959664, -0.4441220},
	{-0.8973247, -0.4413711},
	{-0.8986745, -0.4386160},
	{-0.9000160, -0.4358569},
	{-0.9013489, -0.4330936},
	{-0.9026734, -0.4303263},
	{-0.9039894, -0.4275548},
	{-0.9052969, -0.4247794},
	{-0.9065958, -0.4220000},
	{-0.9078863, -0.4192166},
	{-0.9091681, -0.4164293},
	{-0.9104414, -0.4136380},
	{-0.9117061, -0.4108429},
	{-0.9129623, -0.4080439},
	{-0.9142099, -0.4052410},
	{-0.9154488, -0.4024343},
	{-0.9166792, -0.3996239},
	{-0.9179009, -0.3968097},
	{-0.9191140, -0.3939917},
	{-0.9203184, -0.3911700},
	{-0.9215142, -0.3883447},
	{-0.9227013, -0.3855157},
	{-0.9238797, -0.3826831},
	{-0.9250494, -0.3798468},
	{-0.9262104, -0.3770070},
	{-0.9273626, -0.3741639},
	{-0.9285061, -0.3713170},
	{-0.9296409, -0.3684666},
	{-0.9307671, -0.3656128},
	{-0.9318843, -0.3627555},
	{-0.9329929, -0.3598948},
	{-0.9340926, -0.3570307},
	{-0.9351836, -0.3541633},
	{-0.9362658, -0.3512925},
	{-0.9373391, -0.3484184},
	{-0.9384036, -0.3455411},
	{-0.9394593, -0.3426605},
	{-0.9405062, -0.3397766},
	{-0.9415442, -0.3368896},
	{-0.9425733, -0.3339994},
	{-0.9435936, -0.3311060},
	{-0.9446049, -0.3282095},
	{-0.9456074, -0.3253100},
	{-0.9466010, -0.3224073},
	{-0.9475857, -0.3195017},
	{-0.9485615, -0.3165930},
	{-0.9495283, -0.3136814},
	{-0.9504862, -0.3107668},
	{-0.9514351, -0.3078493},
	{-0.9523751, -0.3049288},
	{-0.9533061, -0.3020056},
	{-0.9542282, -0.2990794},
	{-0.9551413, -0.2961505},
	{-0.9560453, -0.2932190},
	{-0.9569404, -0.2902845},
	{-0.9578265, -0.2873473},
	{-0.9587035, -0.2844073},
	{-0.9595716, -0.2814647},
	{-0.9604306, -0.2785195},
	{-0.9612806, -0.2755716},
	{-0.9621215, -0.2726211},
	{-0.9629533, -0.2696681},
	{-0.9637761, -0.2667125},
	{-0.9645899, -0.2637544},
	{-0.9653945, -0.2607938},
	{-0.9661901, -0.2578308},
	{-0.9669765, -0.2548653},
	{-0.9677539, -0.2518975},
	{-0.9685222, -0.2489273},
	{-0.9692813, -0.2459547},
	{-0.9700313, -0.2429798},
	{-0.9707722, -0.2400027},
	{-0.9715040, -0.2370232},
	{-0.9722266, -0.2340416},
	{-0.9729400, -0.2310577},
	{-0.9736443, -0.2280717},
	{-0.9743395, -0.2250835},
	{-0.9750254, -0.2220932},
	{-0.9757022, -0.2191008},
	{-0.9763698, -0.2161064},
	{-0.9770283, -0.2131099},
	{-0.9776775, -0.2101114},
	{-0.9783174, -0.2071112},
	{-0.9789482, -0.2041087},
	{-0.9795698, -0.2011044},
	{-0.9801822, -0.1980982},
	{-0.9807853, -0.1950901},
	{-0.9813793, -0.1920801},
	{-0.9819639, -0.1890684},
	{-0.9825394, -0.1860549},
	{-0.9831055, -0.1830396},
	{-0.9836625, -0.1800226},
	{-0.9842101, -0.1770039},
	{-0.9847485, -0.1739836},
	{-0.9852777, -0.1709616},
	{-0.9857976, -0.1679380},
	{-0.9863082, -0.1649128},
	{-0.9868094, -0.1618861},
	{-0.9873015, -0.1588578},
	{-0.9877842, -0.1558280},
	{-0.9882576, -0.1527968},
	{-0.9887217, -0.1497642},
	{-0.9891766, -0.1467301},
	{-0.9896221, -0.1436946},
	{-0.9900582, -0.1406578},
	{-0.9904851, -0.1376197},
	{-0.9909027, -0.1345803},
	{-0.9913109, -0.1315396},
	{-0.9917098, -0.1284977},
	{-0.9920993, -0.1254545},
	{-0.9924796, -0.1224105},
	{-0.9928504, -0.1193650},
	{-0.9932120, -0.1163184},
	{-0.9935642, -0.1132707},
	{-0.9939070, -0.1102220},
	{-0.9942405, -0.1071722},
	{-0.9945646, -0.1041214},
	{-0.9948794, -0.1010696},
	{-0.9951848, -0.0980169},
	{-0.9954808, -0.0949632},
	{-0.9957674, -0.0919087},
	{-0.9960448, -0.0888532},
	{-0.9963126, -0.0857970},
	{-0.9965712, -0.0827399},
	{-0.9968203, -0.0796821},
	{-0.9970601, -0.0766235},
	{-0.9972905, -0.0735642},
	{-0.9975115, -0.0705042},
	{-0.9977231, -0.0674435},
	{-0.9979253, -0.0643822},
	{-0.9981182, -0.0613203},
	{-0.9983016, -0.0582579},
	{-0.9984756, -0.0551948},
	{-0.9986402, -0.0521313},
	{-0.9987954, -0.0490673},
	{-0.9989413, -0.0460027},
	{-0.9990777, -0.0429378},
	{-0.9992048, -0.0398725},
	{-0.9993224, -0.0368068},
	{-0.9994306, -0.0337409},
	{-0.9995294, -0.0306746},
	{-0.9996188, -0.0276079},
	{-0.9996988, -0.0245410},
	{-0.9997694, -0.0214738},
	{-0.9998306, -0.0184065},
	{-0.9998823, -0.0153389},
	{-0.9999247, -0.0122712},
	{-0.9999576, -0.0092035},
	{-0.9999812, -0.0061356},
	{-0.9999953, -0.0030676},
};
static const struct C W4096[2048]={
	{1.0000000, -0.0000000},
	{0.9999988, -0.0015340},
	{0.9999953, -0.0030680},
	{0.9999894, -0.0046019},
	{0.9999812, -0.0061359},
	{0.9999706, -0.0076698},
	{0.9999576, -0.0092038},
	{0.9999424, -0.0107377},
	{0.9999247, -0.0122715},
	{0.9999047, -0.0138054},
	{0.9998823, -0.0153392},
	{0.9998577, -0.0168730},
	{0.9998306, -0.0184067},
	{0.9998012, -0.0199404},
	{0.9997694, -0.0214741},
	{0.9997353, -0.0230077},
	{0.9996988, -0.0245412},
	{0.9996600, -0.0260747},
	{0.9996188, -0.0276081},
	{0.9995753, -0.0291415},
	{0.9995294, -0.0306748},
	{0.9994812, -0.0322080},
	{0.9994306, -0.0337412},
	{0.9993777, -0.0352742},
	{0.9993224, -0.0368072},
	{0.9992648, -0.0383401},
	{0.9992048, -0.0398729},
	{0.9991424, -0.0414056},
	{0.9990777, -0.0429383},
	{0.9990107, -0.0444708},
	{0.9989413, -0.0460032},
	{0.9988695, -0.0475355},
	{0.9987954, -0.0490677},
	{0.9987190, -0.0505998},
	{0.9986402, -0.0521317},
	{0.9985591, -0.0536635},
	{0.9984756, -0.0551953},
	{0.9983897, -0.0567268},
	{0.9983016, -0.0582583},
	{0.9982110, -0.0597896},
	{0.9981181, -0.0613207},
	{0.9980229, -0.0628518},
	{0.9979253, -0.0643826},
	{0.9978253, -0.0659134},
	{0.9977230, -0.0674439},
	{0.9976184, -0.0689743},
	{0.9975114, -0.0705046},
	{0.9974021, -0.0720347},
	{0.9972904, -0.0735646},
	{0.9971764, -0.0750943},
	{0.9970601, -0.0766239},
	{0.9969413, -0.0781532},
	{0.9968203, -0.0796824},
	{0.9966969, -0.0812115},
	{0.9965711, -0.0827403},
	{0.9964430, -0.0842689},
	{0.9963126, -0.0857973},
	{0.9961798, -0.0873255},
	{0.9960447, -0.0888536},
	{0.9959072, -0.0903814},
	{0.9957674, -0.0919090},
	{0.9956253, -0.0934363},
	{0.9954808, -0.0949635},
	{0.9953339, -0.0964904},
	{0.9951847, -0.0980171},
	{0.9950332, -0.0995436},
	{0.9948793, -0.1010699},
	{0.9947231, -0.1025959},
	{0.9945646, -0.1041216},
	{0.9944037, -0.1056472},
	{0.9942405, -0.1071724},
	{0.9940749, -0.1086975},
	{0.9939070, -0.1102222},
	{0.9937367, -0.1117467},
	{0.9935641, -0.1132710},
	{0.9933892, -0.1147949},
	{0.9932119, -0.1163186},
	{0.9930323, -0.1178421},
	{0.9928504, -0.1193652},
	{0.9926661, -0.1208881},
	{0.9924796, -0.1224107},
	{0.9922906, -0.1239330},
	{0.9920993, -0.1254550},
	{0.9919057, -0.1269767},
	{0.9917098, -0.1284981},
	{0.9915115, -0.1300192},
	{0.9913108, -0.1315400},
	{0.9911079, -0.1330605},
	{0.9909027, -0.1345807},
	{0.9906950, -0.1361006},
	{0.9904851, -0.1376201},
	{0.9902728, -0.1391394},
	{0.9900582, -0.1406583},
	{0.9898413, -0.1421768},
	{0.9896220, -0.1436951},
	{0.9894004, -0.1452129},
	{0.9891765, -0.1467305},
	{0.9889503, -0.1482477},
	{0.9887217, -0.1497646},
	{0.9884908, -0.1512810},
	{0.9882576, -0.1527972},
	{0.9880220, -0.1543130},
	{0.9877841, -0.1558284},
	{0.9875439, -0.1573435},
	{0.9873014, -0.1588582},
	{0.9870566, -0.1603725},
	{0.9868094, -0.1618864},
	{0.9865599, -0.1634000},
	{0.9863081, -0.1649131},
	{0.9860539, -0.1664259},
	{0.9857975, -0.1679383},
	{0.9855387, -0.1694503},
	{0.9852777, -0.1709619},
	{0.9850142, -0.1724731},
	{0.9847485, -0.1739839},
	{0.9844804, -0.1754943},
	{0.9842101, -0.1770042},
	{0.9839374, -0.1785138},
	{0.9836624, -0.1800229},
	{0.9833851, -0.1815316},
	{0.9831055, -0.1830399},
	{0.9828236, -0.1845478},
	{0.9825393, -0.1860552},
	{0.9822527, -0.1875621},
	{0.9819639, -0.1890687},
	{0.9816727, -0.1905748},
	{0.9813792, -0.1920804},
	{0.9810834, -0.1935856},
	{0.9807853, -0.1950903},
	{0.9804848, -0.1965946},
	{0.9801821, -0.1980984},
	{0.9798771, -0.1996018},
	{0.9795697, -0.2011047},
	{0.9792601, -0.2026071},
	{0.9789482, -0.2041090},
	{0.9786339, -0.2056104},
	{0.9783174, -0.2071114},
	{0.9779985, -0.2086119},
	{0.9776773, -0.2101119},
	{0.9773539, -0.2116113},
	{0.9770281, -0.2131103},
	{0.9767001, -0.2146088},
	{0.9763697, -0.2161068},
	{0.9760371, -0.2176043},
	{0.9757021, -0.2191013},
	{0.9753649, -0.2205977},
	{0.9750254, -0.2220936},
	{0.9746835, -0.2235891},
	{0.9743394, -0.2250839},
	{0.9739929, -0.2265783},
	{0.9736443, -0.2280721},
	{0.9732932, -0.2295654},
	{0.9729400, -0.2310581},
	{0.9725844, -0.2325503},
	{0.9722265, -0.2340420},
	{0.9718663, -0.2355331},
	{0.9715039, -0.2370236},
	{0.9711391, -0.2385136},
	{0.9707721, -0.2400030},
	{0.9704028, -0.2414919},
	{0.9700313, -0.2429802},
	{0.9696574, -0.2444679},
	{0.9692813, -0.2459551},
	{0.9689028, -0.2474416},
	{0.9685221, -0.2489276},
	{0.9681391, -0.2504130},
	{0.9677538, -0.2518978},
	{0.9673663, -0.2533821},
	{0.9669765, -0.2548657},
	{0.9665844, -0.2563487},
	{0.9661900, -0.2578311},
	{0.9657934, -0.2593130},
	{0.9653944, -0.2607942},
	{0.9649932, -0.2622747},
	{0.9645898, -0.2637547},
	{0.9641840, -0.2652341},
	{0.9637761, -0.2667128},
	{0.9633658, -0.2681909},
	{0.9629533, -0.2696683},
	{0.9625385, -0.2711452},
	{0.9621214, -0.2726214},
	{0.9617020, -0.2740969},
	{0.9612805, -0.2755718},
	{0.9608566, -0.2770461},
	{0.9604305, -0.2785197},
	{0.9600021, -0.2799927},
	{0.9595715, -0.2814650},
	{0.9591386, -0.2829366},
	{0.9587035, -0.2844076},
	{0.9582661, -0.2858779},
	{0.9578264, -0.2873475},
	{0.9573845, -0.2888164},
	{0.9569404, -0.2902847},
	{0.9564939, -0.2917523},
	{0.9560452, -0.2932192},
	{0.9555943, -0.2946854},
	{0.9551411, -0.2961509},
	{0.9546857, -0.2976157},
	{0.9542281, -0.2990799},
	{0.9537682, -0.3005433},
	{0.9533060, -0.3020060},
	{0.9528416, -0.3034680},
	{0.9523750, -0.3049293},
	{0.9519061, -0.3063898},
	{0.9514350, -0.3078497},
	{0.9509616, -0.3093088},
	{0.9504861, -0.3107672},
	{0.9500082, -0.3122248},
	{0.9495282, -0.3136818},
	{0.9490459, -0.3151380},
	{0.9485613, -0.3165934},
	{0.9480746, -0.3180481},
	{0.9475856, -0.3195021},
	{0.9470944, -0.3209553},
	{0.9466009, -0.3224077},
	{0.9461052, -0.3238594},
	{0.9456073, -0.3253103},
	{0.9451072, -0.3267605},
	{0.9446048, -0.3282099},
	{0.9441003, -0.3296585},
	{0.9435934, -0.3311063},
	{0.9430844, -0.3325534},
	{0.9425732, -0.3339997},
	{0.9420597, -0.3354452},
	{0.9415441, -0.3368899},
	{0.9410262, -0.3383338},
	{0.9405060, -0.3397769},
	{0.9399837, -0.3412192},
	{0.9394592, -0.3426608},
	{0.9389325, -0.3441015},
	{0.9384035, -0.3455414},
	{0.9378724, -0.3469805},
	{0.9373390, -0.3484187},
	{0.9368035, -0.3498562},
	{0.9362656, -0.3512928},
	{0.9357257, -0.3527286},
	{0.9351835, -0.3541636},
	{0.9346391, -0.3555977},
	{0.9340925, -0.3570310},
	{0.9335437, -0.3584634},
	{0.9329928, -0.3598951},
	{0.9324396, -0.3613258},
	{0.9318842, -0.3627558},
	{0.9313267, -0.3641848},
	{0.9307669, -0.3656130},
	{0.9302050, -0.3670404},
	{0.9296409, -0.3684669},
	{0.9290746, -0.3698925},
	{0.9285061, -0.3713172},
	{0.9279354, -0.3727411},
	{0.9273625, -0.3741641},
	{0.9267874, -0.3755862},
	{0.9262102, -0.3770075},
	{0.9256308, -0.3784278},
	{0.9250492, -0.3798472},
	{0.9244655, -0.3812658},
	{0.9238795, -0.3826835},
	{0.9232914, -0.3841002},
	{0.9227011, -0.3855161},
	{0.9221087, -0.3869311},
	{0.9215140, -0.3883451},
	{0.9209172, -0.3897582},
	{0.9203182, -0.3911704},
	{0.9197171, -0.3925817},
	{0.9191138, -0.3939921},
	{0.9185084, -0.3954015},
	{0.9179007, -0.3968100},
	{0.9172910, -0.3982176},
	{0.9166790, -0.3996242},
	{0.9160650, -0.4010299},
	{0.9154487, -0.4024347},
	{0.9148303, -0.4038385},
	{0.9142097, -0.4052414},
	{0.9135870, -0.4066433},
	{0.9129621, -0.4080442},
	{0.9123352, -0.4094442},
	{0.9117060, -0.4108432},
	{0.9110747, -0.4122413},
	{0.9104413, -0.4136384},
	{0.9098057, -0.4150345},
	{0.9091679, -0.4164296},
	{0.9085281, -0.4178238},
	{0.9078861, -0.4192169},
	{0.9072419, -0.4206091},
	{0.9065957, -0.4220003},
	{0.9059473, -0.4233905},
	{0.9052967, -0.4247797},
	{0.9046441, -0.4261679},
	{0.9039893, -0.4275551},
	{0.9033324, -0.4289413},
	{0.9026733, -0.4303265},
	{0.9020121, -0.4317107},
	{0.9013488, -0.4330939},
	{0.9006834, -0.4344760},
	{0.9000159, -0.4358571},
	{0.8993462, -0.4372372},
	{0.8986744, -0.4386163},
	{0.8980005, -0.4399943},
	{0.8973246, -0.4413713},
	{0.8966464, -0.4427473},
	{0.8959662, -0.4441222},
	{0.8952839, -0.4454961},
	{0.8945994, -0.4468689},
	{0.8939129, -0.4482406},
	{0.8932243, -0.4496114},
	{0.8925335, -0.4509810},
	{0.8918407, -0.4523496},
	{0.8911458, -0.4537172},
	{0.8904487, -0.4550836},
	{0.8897496, -0.4564490},
	{0.8890483, -0.4578134},
	{0.8883450, -0.4591766},
	{0.8876396, -0.4605387},
	{0.8869321, -0.4618998},
	{0.8862225, -0.4632598},
	{0.8855108, -0.4646187},
	{0.8847971, -0.4659766},
	{0.8840812, -0.4673333},
	{0.8833633, -0.4686888},
	{0.8826433, -0.4700434},
	{0.8819212, -0.4713968},
	{0.8811971, -0.4727491},
	{0.8804709, -0.4741003},
	{0.8797426, -0.4754503},
	{0.8790122, -0.4767993},
	{0.8782797, -0.4781471},
	{0.8775453, -0.4794938},
	{0.8768087, -0.4808394},
	{0.8760701, -0.4821838},
	{0.8753294, -0.4835271},
	{0.8745866, -0.4848693},
	{0.8738418, -0.4862103},
	{0.8730949, -0.4875502},
	{0.8723460, -0.4888890},
	{0.8715950, -0.4902266},
	{0.8708420, -0.4915630},
	{0.8700870, -0.4928982},
	{0.8693299, -0.4942323},
	{0.8685707, -0.4955653},
	{0.8678095, -0.4968971},
	{0.8670462, -0.4982277},
	{0.8662809, -0.4995572},
	{0.8655136, -0.5008854},
	{0.8647442, -0.5022125},
	{0.8639728, -0.5035384},
	{0.8631994, -0.5048631},
	{0.8624239, -0.5061867},
	{0.8616464, -0.5075091},
	{0.8608669, -0.5088302},
	{0.8600854, -0.5101502},
	{0.8593018, -0.5114689},
	{0.8585162, -0.5127864},
	{0.8577286, -0.5141028},
	{0.8569390, -0.5154179},
	{0.8561473, -0.5167319},
	{0.8553537, -0.5180445},
	{0.8545579, -0.5193560},
	{0.8537602, -0.5206663},
	{0.8529606, -0.5219753},
	{0.8521588, -0.5232832},
	{0.8513551, -0.5245898},
	{0.8505495, -0.5258951},
	{0.8497417, -0.5271992},
	{0.8489320, -0.5285021},
	{0.8481203, -0.5298036},
	{0.8473066, -0.5311040},
	{0.8464909, -0.5324032},
	{0.8456732, -0.5337011},
	{0.8448535, -0.5349976},
	{0.8440319, -0.5362930},
	{0.8432082, -0.5375871},
	{0.8423826, -0.5388800},
	{0.8415549, -0.5401715},
	{0.8407254, -0.5414618},
	{0.8398938, -0.5427508},
	{0.8390602, -0.5440386},
	{0.8382246, -0.5453250},
	{0.8373871, -0.5466102},
	{0.8365477, -0.5478941},
	{0.8357062, -0.5491767},
	{0.8348628, -0.5504580},
	{0.8340175, -0.5517380},
	{0.8331701, -0.5530167},
	{0.8323208, -0.5542942},
	{0.8314696, -0.5555703},
	{0.8306164, -0.5568451},
	{0.8297612, -0.5581186},
	{0.8289041, -0.5593908},
	{0.8280450, -0.5606616},
	{0.8271840, -0.5619312},
	{0.8263210, -0.5631994},
	{0.8254561, -0.5644663},
	{0.8245893, -0.5657319},
	{0.8237205, -0.5669961},
	{0.8228498, -0.5682590},
	{0.8219771, -0.5695205},
	{0.8211025, -0.5707808},
	{0.8202260, -0.5720397},
	{0.8193475, -0.5732972},
	{0.8184671, -0.5745534},
	{0.8175848, -0.5758082},
	{0.8167005, -0.5770617},
	{0.8158144, -0.5783139},
	{0.8149263, -0.5795646},
	{0.8140363, -0.5808140},
	{0.8131444, -0.5820621},
	{0.8122506, -0.5833088},
	{0.8113548, -0.5845540},
	{0.8104572, -0.5857979},
	{0.8095576, -0.5870404},
	{0.8086562, -0.5882816},
	{0.8077528, -0.5895213},
	{0.8068475, -0.5907598},
	{0.8059403, -0.5919967},
	{0.8050313, -0.5932323},
	{0.8041203, -0.5944666},
	{0.8032075, -0.5956994},
	{0.8022928, -0.5969308},
	{0.8013761, -0.5981608},
	{0.8004576, -0.5993894},
	{0.7995372, -0.6006166},
	{0.7986150, -0.6018423},
	{0.7976908, -0.6030666},
	{0.7967648, -0.6042896},
	{0.7958369, -0.6055111},
	{0.7949071, -0.6067312},
	{0.7939754, -0.6079499},
	{0.7930419, -0.6091670},
	{0.7921065, -0.6103829},
	{0.7911693, -0.6115972},
	{0.7902302, -0.6128101},
	{0.7892892, -0.6140216},
	{0.7883464, -0.6152316},
	{0.7874017, -0.6164402},
	{0.7864552, -0.6176474},
	{0.7855068, -0.6188530},
	{0.7845566, -0.6200572},
	{0.7836045, -0.6212600},
	{0.7826506, -0.6224613},
	{0.7816948, -0.6236612},
	{0.7807372, -0.6248595},
	{0.7797778, -0.6260564},
	{0.7788165, -0.6272519},
	{0.7778534, -0.6284458},
	{0.7768884, -0.6296383},
	{0.7759216, -0.6308293},
	{0.7749531, -0.6320188},
	{0.7739826, -0.6332068},
	{0.7730104, -0.6343933},
	{0.7720363, -0.6355784},
	{0.7710605, -0.6367619},
	{0.7700828, -0.6379439},
	{0.7691033, -0.6391245},
	{0.7681220, -0.6403036},
	{0.7671389, -0.6414810},
	{0.7661539, -0.6426571},
	{0.7651672, -0.6438316},
	{0.7641787, -0.6450046},
	{0.7631884, -0.6461761},
	{0.7621962, -0.6473460},
	{0.7612023, -0.6485144},
	{0.7602066, -0.6496814},
	{0.7592091, -0.6508468},
	{0.7582098, -0.6520106},
	{0.7572088, -0.6531729},
	{0.7562060, -0.6543337},
	{0.7552013, -0.6554929},
	{0.7541949, -0.6566506},
	{0.7531868, -0.6578068},
	{0.7521768, -0.6589614},
	{0.7511651, -0.6601144},
	{0.7501516, -0.6612659},
	{0.7491363, -0.6624159},
	{0.7481193, -0.6635642},
	{0.7471005, -0.6647111},
	{0.7460800, -0.6658563},
	{0.7450577, -0.6670000},
	{0.7440337, -0.6681421},
	{0.7430079, -0.6692826},
	{0.7419804, -0.6704216},
	{0.7409511, -0.6715590},
	{0.7399201, -0.6726948},
	{0.7388873, -0.6738291},
	{0.7378528, -0.6749617},
	{0.7368165, -0.6760927},
	{0.7357785, -0.6772223},
	{0.7347388, -0.6783501},
	{0.7336974, -0.6794764},
	{0.7326542, -0.6806011},
	{0.7316093, -0.6817241},
	{0.7305627, -0.6828457},
	{0.7295144, -0.6839655},
	{0.7284644, -0.6850837},
	{0.7274126, -0.6862004},
	{0.7263591, -0.6873154},
	{0.7253039, -0.6884288},
	{0.7242470, -0.6895406},
	{0.7231885, -0.6906508},
	{0.7221282, -0.6917593},
	{0.7210661, -0.6928662},
	{0.7200025, -0.6939715},
	{0.7189370, -0.6950752},
	{0.7178700, -0.6961772},
	{0.7168012, -0.6972776},
	{0.7157307, -0.6983763},
	{0.7146586, -0.6994734},
	{0.7135848, -0.7005689},
	{0.7125093, -0.7016627},
	{0.7114322, -0.7027548},
	{0.7103533, -0.7038453},
	{0.7092728, -0.7049341},
	{0.7081906, -0.7060213},
	{0.7071067, -0.7071068},
	{0.7060212, -0.7081907},
	{0.7049340, -0.7092729},
	{0.7038452, -0.7103534},
	{0.7027547, -0.7114323},
	{0.7016625, -0.7125095},
	{0.7005687, -0.7135850},
	{0.6994733, -0.7146587},
	{0.6983762, -0.7157309},
	{0.6972775, -0.7168013},
	{0.6961771, -0.7178701},
	{0.6950750, -0.7189372},
	{0.6939714, -0.7200025},
	{0.6928661, -0.7210662},
	{0.6917592, -0.7221283},
	{0.6906506, -0.7231886},
	{0.6895405, -0.7242472},
	{0.6884287, -0.7253041},
	{0.6873153, -0.7263592},
	{0.6862003, -0.7274127},
	{0.6850836, -0.7284645},
	{0.6839653, -0.7295145},
	{0.6828455, -0.7305629},
	{0.6817240, -0.7316094},
	{0.6806009, -0.7326543},
	{0.6794763, -0.7336975},
	{0.6783500, -0.7347389},
	{0.6772221, -0.7357786},
	{0.6760926, -0.7368166},
	{0.6749616, -0.7378529},
	{0.6738290, -0.7388874},
	{0.6726947, -0.7399201},
	{0.6715589, -0.7409512},
	{0.6704215, -0.7419805},
	{0.6692825, -0.7430080},
	{0.6681420, -0.7440338},
	{0.6669998, -0.7450579},
	{0.6658562, -0.7460801},
	{0.6647109, -0.7471007},
	{0.6635641, -0.7481194},
	{0.6624157, -0.7491364},
	{0.6612658, -0.7501517},
	{0.6601143, -0.7511652},
	{0.6589612, -0.7521769},
	{0.6578066, -0.7531869},
	{0.6566505, -0.7541950},
	{0.6554928, -0.7552015},
	{0.6543335, -0.7562061},
	{0.6531727, -0.7572089},
	{0.6520104, -0.7582100},
	{0.6508466, -0.7592093},
	{0.6496812, -0.7602068},
	{0.6485143, -0.7612025},
	{0.6473459, -0.7621964},
	{0.6461760, -0.7631885},
	{0.6450045, -0.7641788},
	{0.6438315, -0.7651673},
	{0.6426570, -0.7661541},
	{0.6414809, -0.7671390},
	{0.6403034, -0.7681221},
	{0.6391244, -0.7691034},
	{0.6379438, -0.7700829},
	{0.6367618, -0.7710606},
	{0.6355782, -0.7720365},
	{0.6343932, -0.7730106},
	{0.6332067, -0.7739828},
	{0.6320187, -0.7749531},
	{0.6308292, -0.7759218},
	{0.6296382, -0.7768885},
	{0.6284457, -0.7778534},
	{0.6272517, -0.7788166},
	{0.6260563, -0.7797778},
	{0.6248594, -0.7807373},
	{0.6236610, -0.7816949},
	{0.6224612, -0.7826506},
	{0.6212599, -0.7836046},
	{0.6200571, -0.7845567},
	{0.6188529, -0.7855069},
	{0.6176472, -0.7864553},
	{0.6164401, -0.7874019},
	{0.6152315, -0.7883465},
	{0.6140215, -0.7892893},
	{0.6128100, -0.7902303},
	{0.6115971, -0.7911694},
	{0.6103827, -0.7921066},
	{0.6091669, -0.7930420},
	{0.6079497, -0.7939755},
	{0.6067311, -0.7949072},
	{0.6055110, -0.7958370},
	{0.6042895, -0.7967649},
	{0.6030665, -0.7976909},
	{0.6018422, -0.7986150},
	{0.6006164, -0.7995374},
	{0.5993892, -0.8004577},
	{0.5981606, -0.8013762},
	{0.5969306, -0.8022928},
	{0.5956993, -0.8032076},
	{0.5944664, -0.8041204},
	{0.5932322, -0.8050314},
	{0.5919966, -0.8059404},
	{0.5907596, -0.8068476},
	{0.5895212, -0.8077529},
	{0.5882815, -0.8086562},
	{0.5870403, -0.8095577},
	{0.5857978, -0.8104573},
	{0.5845538, -0.8113549},
	{0.5833086, -0.8122507},
	{0.5820619, -0.8131445},
	{0.5808138, -0.8140364},
	{0.5795645, -0.8149264},
	{0.5783137, -0.8158144},
	{0.5770616, -0.8167006},
	{0.5758081, -0.8175849},
	{0.5745533, -0.8184672},
	{0.5732971, -0.8193476},
	{0.5720395, -0.8202260},
	{0.5707806, -0.8211026},
	{0.5695204, -0.8219772},
	{0.5682589, -0.8228499},
	{0.5669959, -0.8237206},
	{0.5657317, -0.8245894},
	{0.5644661, -0.8254562},
	{0.5631992, -0.8263211},
	{0.5619311, -0.8271841},
	{0.5606615, -0.8280451},
	{0.5593907, -0.8289042},
	{0.5581185, -0.8297613},
	{0.5568449, -0.8306165},
	{0.5555701, -0.8314697},
	{0.5542940, -0.8323209},
	{0.5530166, -0.8331702},
	{0.5517379, -0.8340176},
	{0.5504579, -0.8348629},
	{0.5491766, -0.8357064},
	{0.5478939, -0.8365478},
	{0.5466101, -0.8373873},
	{0.5453249, -0.8382248},
	{0.5440385, -0.8390603},
	{0.5427507, -0.8398938},
	{0.5414617, -0.8407254},
	{0.5401714, -0.8415550},
	{0.5388798, -0.8423827},
	{0.5375870, -0.8432083},
	{0.5362929, -0.8440319},
	{0.5349975, -0.8448536},
	{0.5337009, -0.8456733},
	{0.5324031, -0.8464910},
	{0.5311039, -0.8473067},
	{0.5298035, -0.8481204},
	{0.5285019, -0.8489321},
	{0.5271990, -0.8497418},
	{0.5258949, -0.8505496},
	{0.5245895, -0.8513553},
	{0.5232829, -0.8521590},
	{0.5219752, -0.8529607},
	{0.5206661, -0.8537604},
	{0.5193558, -0.8545581},
	{0.5180444, -0.8553538},
	{0.5167317, -0.8561474},
	{0.5154178, -0.8569390},
	{0.5141027, -0.8577287},
	{0.5127863, -0.8585163},
	{0.5114688, -0.8593019},
	{0.5101500, -0.8600854},
	{0.5088301, -0.8608670},
	{0.5075089, -0.8616465},
	{0.5061865, -0.8624240},
	{0.5048630, -0.8631995},
	{0.5035383, -0.8639729},
	{0.5022124, -0.8647443},
	{0.5008853, -0.8655137},
	{0.4995570, -0.8662810},
	{0.4982276, -0.8670463},
	{0.4968970, -0.8678095},
	{0.4955651, -0.8685707},
	{0.4942322, -0.8693299},
	{0.4928981, -0.8700870},
	{0.4915628, -0.8708422},
	{0.4902264, -0.8715951},
	{0.4888888, -0.8723461},
	{0.4875500, -0.8730950},
	{0.4862101, -0.8738419},
	{0.4848691, -0.8745867},
	{0.4835269, -0.8753295},
	{0.4821836, -0.8760702},
	{0.4808392, -0.8768088},
	{0.4794936, -0.8775454},
	{0.4781470, -0.8782798},
	{0.4767992, -0.8790123},
	{0.4754502, -0.8797426},
	{0.4741001, -0.8804709},
	{0.4727490, -0.8811972},
	{0.4713967, -0.8819213},
	{0.4700432, -0.8826434},
	{0.4686888, -0.8833634},
	{0.4673331, -0.8840813},
	{0.4659764, -0.8847972},
	{0.4646186, -0.8855109},
	{0.4632597, -0.8862226},
	{0.4618997, -0.8869322},
	{0.4605386, -0.8876397},
	{0.4591765, -0.8883451},
	{0.4578132, -0.8890484},
	{0.4564489, -0.8897496},
	{0.4550835, -0.8904488},
	{0.4537170, -0.8911458},
	{0.4523495, -0.8918408},
	{0.4509809, -0.8925336},
	{0.4496112, -0.8932244},
	{0.4482405, -0.8939130},
	{0.4468687, -0.8945996},
	{0.4454959, -0.8952840},
	{0.4441220, -0.8959664},
	{0.4427471, -0.8966466},
	{0.4413711, -0.8973247},
	{0.4399941, -0.8980007},
	{0.4386162, -0.8986745},
	{0.4372371, -0.8993463},
	{0.4358570, -0.9000160},
	{0.4344759, -0.9006835},
	{0.4330938, -0.9013489},
	{0.4317106, -0.9020122},
	{0.4303264, -0.9026734},
	{0.4289412, -0.9033324},
	{0.4275550, -0.9039893},
	{0.4261678, -0.9046441},
	{0.4247796, -0.9052968},
	{0.4233904, -0.9059473},
	{0.4220002, -0.9065958},
	{0.4206090, -0.9072421},
	{0.4192168, -0.9078861},
	{0.4178236, -0.9085281},
	{0.4164294, -0.9091681},
	{0.4150343, -0.9098058},
	{0.4136382, -0.9104413},
	{0.4122411, -0.9110748},
	{0.4108430, -0.9117061},
	{0.4094440, -0.9123353},
	{0.4080440, -0.9129623},
	{0.4066431, -0.9135871},
	{0.4052412, -0.9142098},
	{0.4038383, -0.9148304},
	{0.4024345, -0.9154488},
	{0.4010297, -0.9160650},
	{0.3996241, -0.9166791},
	{0.3982175, -0.9172910},
	{0.3968099, -0.9179008},
	{0.3954014, -0.9185084},
	{0.3939919, -0.9191139},
	{0.3925816, -0.9197172},
	{0.3911703, -0.9203183},
	{0.3897581, -0.9209173},
	{0.3883449, -0.9215141},
	{0.3869309, -0.9221087},
	{0.3855160, -0.9227012},
	{0.3841001, -0.9232914},
	{0.3826833, -0.9238796},
	{0.3812656, -0.9244655},
	{0.3798471, -0.9250493},
	{0.3784276, -0.9256309},
	{0.3770073, -0.9262103},
	{0.3755860, -0.9267876},
	{0.3741639, -0.9273626},
	{0.3727409, -0.9279355},
	{0.3713171, -0.9285061},
	{0.3698923, -0.9290746},
	{0.3684667, -0.9296409},
	{0.3670402, -0.9302051},
	{0.3656128, -0.9307670},
	{0.3641846, -0.9313267},
	{0.3627556, -0.9318843},
	{0.3613256, -0.9324397},
	{0.3598949, -0.9329929},
	{0.3584633, -0.9335438},
	{0.3570309, -0.9340926},
	{0.3555976, -0.9346392},
	{0.3541634, -0.9351835},
	{0.3527285, -0.9357257},
	{0.3512927, -0.9362657},
	{0.3498560, -0.9368035},
	{0.3484186, -0.9373391},
	{0.3469803, -0.9378724},
	{0.3455412, -0.9384035},
	{0.3441013, -0.9389325},
	{0.3426606, -0.9394593},
	{0.3412191, -0.9399838},
	{0.3397768, -0.9405061},
	{0.3383336, -0.9410262},
	{0.3368897, -0.9415441},
	{0.3354450, -0.9420598},
	{0.3339995, -0.9425732},
	{0.3325532, -0.9430845},
	{0.3311062, -0.9435935},
	{0.3296583, -0.9441003},
	{0.3282097, -0.9446049},
	{0.3267603, -0.9451072},
	{0.3253101, -0.9456074},
	{0.3238592, -0.9461053},
	{0.3224075, -0.9466010},
	{0.3209550, -0.9470944},
	{0.3195018, -0.9475856},
	{0.3180480, -0.9480746},
	{0.3165933, -0.9485614},
	{0.3151378, -0.9490459},
	{0.3136817, -0.9495282},
	{0.3122247, -0.9500083},
	{0.3107671, -0.9504861},
	{0.3093086, -0.9509617},
	{0.3078495, -0.9514350},
	{0.3063897, -0.9519061},
	{0.3049291, -0.9523751},
	{0.3034678, -0.9528417},
	{0.3020058, -0.9533061},
	{0.3005431, -0.9537683},
	{0.2990797, -0.9542282},
	{0.2976156, -0.9546858},
	{0.2961507, -0.9551412},
	{0.2946852, -0.9555944},
	{0.2932190, -0.9560453},
	{0.2917521, -0.9564940},
	{0.2902845, -0.9569404},
	{0.2888162, -0.9573845},
	{0.2873473, -0.9578264},
	{0.2858777, -0.9582661},
	{0.2844074, -0.9587035},
	{0.2829364, -0.9591387},
	{0.2814648, -0.9595715},
	{0.2799925, -0.9600022},
	{0.2785195, -0.9604306},
	{0.2770459, -0.9608567},
	{0.2755717, -0.9612805},
	{0.2740968, -0.9617021},
	{0.2726213, -0.9621214},
	{0.2711451, -0.9625385},
	{0.2696682, -0.9629533},
	{0.2681907, -0.9633659},
	{0.2667126, -0.9637761},
	{0.2652339, -0.9641841},
	{0.2637546, -0.9645898},
	{0.2622746, -0.9649933},
	{0.2607940, -0.9653945},
	{0.2593128, -0.9657934},
	{0.2578310, -0.9661900},
	{0.2563486, -0.9665844},
	{0.2548655, -0.9669765},
	{0.2533819, -0.9673663},
	{0.2518977, -0.9677539},
	{0.2504129, -0.9681392},
	{0.2489274, -0.9685221},
	{0.2474415, -0.9689028},
	{0.2459549, -0.9692813},
	{0.2444677, -0.9696574},
	{0.2429800, -0.9700313},
	{0.2414917, -0.9704029},
	{0.2400028, -0.9707722},
	{0.2385134, -0.9711392},
	{0.2370234, -0.9715039},
	{0.2355329, -0.9718664},
	{0.2340419, -0.9722265},
	{0.2325502, -0.9725844},
	{0.2310580, -0.9729400},
	{0.2295653, -0.9732932},
	{0.2280720, -0.9736443},
	{0.2265782, -0.9739930},
	{0.2250838, -0.9743394},
	{0.2235889, -0.9746835},
	{0.2220935, -0.9750254},
	{0.2205976, -0.9753649},
	{0.2191011, -0.9757022},
	{0.2176041, -0.9760371},
	{0.2161067, -0.9763697},
	{0.2146087, -0.9767001},
	{0.2131102, -0.9770282},
	{0.2116112, -0.9773539},
	{0.2101117, -0.9776774},
	{0.2086117, -0.9779986},
	{0.2071112, -0.9783174},
	{0.2056102, -0.9786339},
	{0.2041088, -0.9789482},
	{0.2026069, -0.9792601},
	{0.2011044, -0.9795698},
	{0.1996016, -0.9798771},
	{0.1980982, -0.9801822},
	{0.1965944, -0.9804849},
	{0.1950901, -0.9807853},
	{0.1935854, -0.9810835},
	{0.1920802, -0.9813792},
	{0.1905747, -0.9816727},
	{0.1890686, -0.9819639},
	{0.1875620, -0.9822528},
	{0.1860550, -0.9825393},
	{0.1845476, -0.9828236},
	{0.1830398, -0.9831055},
	{0.1815315, -0.9833851},
	{0.1800228, -0.9836624},
	{0.1785136, -0.9839374},
	{0.1770041, -0.9842101},
	{0.1754941, -0.9844805},
	{0.1739837, -0.9847485},
	{0.1724729, -0.9850143},
	{0.1709617, -0.9852777},
	{0.1694501, -0.9855388},
	{0.1679381, -0.9857975},
	{0.1664257, -0.9860540},
	{0.1649130, -0.9863081},
	{0.1633998, -0.9865599},
	{0.1618862, -0.9868094},
	{0.1603723, -0.9870566},
	{0.1588580, -0.9873015},
	{0.1573433, -0.9875440},
	{0.1558282, -0.9877841},
	{0.1543128, -0.9880220},
	{0.1527970, -0.9882576},
	{0.1512808, -0.9884908},
	{0.1497643, -0.9887217},
	{0.1482476, -0.9889503},
	{0.1467304, -0.9891765},
	{0.1452128, -0.9894004},
	{0.1436949, -0.9896221},
	{0.1421767, -0.9898413},
	{0.1406581, -0.9900582},
	{0.1391392, -0.9902728},
	{0.1376200, -0.9904851},
	{0.1361004, -0.9906951},
	{0.1345806, -0.9909027},
	{0.1330604, -0.9911079},
	{0.1315399, -0.9913109},
	{0.1300191, -0.9915115},
	{0.1284980, -0.9917098},
	{0.1269765, -0.9919057},
	{0.1254548, -0.9920993},
	{0.1239328, -0.9922906},
	{0.1224105, -0.9924796},
	{0.1208879, -0.9926662},
	{0.1193650, -0.9928504},
	{0.1178419, -0.9930324},
	{0.1163184, -0.9932120},
	{0.1147947, -0.9933892},
	{0.1132708, -0.9935641},
	{0.1117465, -0.9937367},
	{0.1102220, -0.9939070},
	{0.1086972, -0.9940749},
	{0.1071722, -0.9942405},
	{0.1056469, -0.9944037},
	{0.1041215, -0.9945646},
	{0.1025958, -0.9947231},
	{0.1010697, -0.9948794},
	{0.0995435, -0.9950332},
	{0.0980170, -0.9951847},
	{0.0964903, -0.9953339},
	{0.0949634, -0.9954808},
	{0.0934362, -0.9956253},
	{0.0919088, -0.9957674},
	{0.0903812, -0.9959072},
	{0.0888534, -0.9960447},
	{0.0873254, -0.9961798},
	{0.0857972, -0.9963126},
	{0.0842687, -0.9964431},
	{0.0827401, -0.9965712},
	{0.0812113, -0.9966969},
	{0.0796823, -0.9968203},
	{0.0781531, -0.9969414},
	{0.0766237, -0.9970601},
	{0.0750941, -0.9971765},
	{0.0735644, -0.9972905},
	{0.0720345, -0.9974021},
	{0.0705044, -0.9975114},
	{0.0689741, -0.9976184},
	{0.0674437, -0.9977231},
	{0.0659131, -0.9978254},
	{0.0643824, -0.9979253},
	{0.0628515, -0.9980229},
	{0.0613206, -0.9981181},
	{0.0597895, -0.9982110},
	{0.0582581, -0.9983016},
	{0.0567267, -0.9983897},
	{0.0551951, -0.9984756},
	{0.0536634, -0.9985591},
	{0.0521316, -0.9986402},
	{0.0505996, -0.9987190},
	{0.0490675, -0.9987954},
	{0.0475353, -0.9988695},
	{0.0460030, -0.9989413},
	{0.0444706, -0.9990107},
	{0.0429381, -0.9990777},
	{0.0414055, -0.9991424},
	{0.0398728, -0.9992048},
	{0.0383399, -0.9992648},
	{0.0368070, -0.9993224},
	{0.0352741, -0.9993777},
	{0.0337410, -0.9994306},
	{0.0322078, -0.9994812},
	{0.0306746, -0.9995294},
	{0.0291413, -0.9995753},
	{0.0276079, -0.9996188},
	{0.0260745, -0.9996600},
	{0.0245410, -0.9996988},
	{0.0230075, -0.9997353},
	{0.0214739, -0.9997694},
	{0.0199402, -0.9998012},
	{0.0184065, -0.9998306},
	{0.0168729, -0.9998577},
	{0.0153391, -0.9998823},
	{0.0138053, -0.9999047},
	{0.0122714, -0.9999247},
	{0.0107375, -0.9999424},
	{0.0092036, -0.9999576},
	{0.0076697, -0.9999706},
	{0.0061357, -0.9999812},
	{0.0046018, -0.9999894},
	{0.0030678, -0.9999953},
	{0.0015338, -0.9999988},
	{-0.0000002, -1.0000000},
	{-0.0015341, -0.9999988},
	{-0.0030681, -0.9999953},
	{-0.0046021, -0.9999894},
	{-0.0061361, -0.9999812},
	{-0.0076700, -0.9999706},
	{-0.0092039, -0.9999576},
	{-0.0107379, -0.9999424},
	{-0.0122717, -0.9999247},
	{-0.0138056, -0.9999047},
	{-0.0153394, -0.9998823},
	{-0.0168732, -0.9998577},
	{-0.0184069, -0.9998306},
	{-0.0199406, -0.9998012},
	{-0.0214743, -0.9997694},
	{-0.0230079, -0.9997353},
	{-0.0245415, -0.9996988},
	{-0.0260748, -0.9996600},
	{-0.0276083, -0.9996188},
	{-0.0291416, -0.9995753},
	{-0.0306749, -0.9995294},
	{-0.0322082, -0.9994812},
	{-0.0337413, -0.9994306},
	{-0.0352744, -0.9993777},
	{-0.0368074, -0.9993224},
	{-0.0383403, -0.9992647},
	{-0.0398731, -0.9992048},
	{-0.0414058, -0.9991424},
	{-0.0429384, -0.9990777},
	{-0.0444709, -0.9990107},
	{-0.0460034, -0.9989413},
	{-0.0475357, -0.9988695},
	{-0.0490679, -0.9987954},
	{-0.0505999, -0.9987190},
	{-0.0521319, -0.9986402},
	{-0.0536637, -0.9985591},
	{-0.0551954, -0.9984756},
	{-0.0567270, -0.9983897},
	{-0.0582585, -0.9983015},
	{-0.0597898, -0.9982110},
	{-0.0613210, -0.9981181},
	{-0.0628520, -0.9980229},
	{-0.0643829, -0.9979253},
	{-0.0659136, -0.9978253},
	{-0.0674442, -0.9977230},
	{-0.0689746, -0.9976184},
	{-0.0705047, -0.9975114},
	{-0.0720348, -0.9974021},
	{-0.0735647, -0.9972904},
	{-0.0750944, -0.9971764},
	{-0.0766240, -0.9970601},
	{-0.0781534, -0.9969413},
	{-0.0796826, -0.9968203},
	{-0.0812116, -0.9966969},
	{-0.0827404, -0.9965711},
	{-0.0842691, -0.9964430},
	{-0.0857975, -0.9963126},
	{-0.0873257, -0.9961798},
	{-0.0888537, -0.9960447},
	{-0.0903815, -0.9959072},
	{-0.0919091, -0.9957674},
	{-0.0934365, -0.9956253},
	{-0.0949637, -0.9954807},
	{-0.0964906, -0.9953339},
	{-0.0980173, -0.9951847},
	{-0.0995438, -0.9950332},
	{-0.1010701, -0.9948793},
	{-0.1025961, -0.9947231},
	{-0.1041219, -0.9945645},
	{-0.1056474, -0.9944037},
	{-0.1071727, -0.9942404},
	{-0.1086977, -0.9940749},
	{-0.1102224, -0.9939069},
	{-0.1117470, -0.9937367},
	{-0.1132711, -0.9935641},
	{-0.1147951, -0.9933892},
	{-0.1163188, -0.9932119},
	{-0.1178422, -0.9930323},
	{-0.1193654, -0.9928504},
	{-0.1208882, -0.9926661},
	{-0.1224108, -0.9924795},
	{-0.1239331, -0.9922906},
	{-0.1254551, -0.9920993},
	{-0.1269769, -0.9919057},
	{-0.1284983, -0.9917097},
	{-0.1300194, -0.9915115},
	{-0.1315402, -0.9913108},
	{-0.1330607, -0.9911079},
	{-0.1345809, -0.9909026},
	{-0.1361008, -0.9906950},
	{-0.1376203, -0.9904851},
	{-0.1391395, -0.9902728},
	{-0.1406584, -0.9900582},
	{-0.1421770, -0.9898412},
	{-0.1436953, -0.9896220},
	{-0.1452131, -0.9894004},
	{-0.1467307, -0.9891765},
	{-0.1482479, -0.9889503},
	{-0.1497648, -0.9887217},
	{-0.1512813, -0.9884908},
	{-0.1527974, -0.9882575},
	{-0.1543132, -0.9880220},
	{-0.1558286, -0.9877841},
	{-0.1573436, -0.9875439},
	{-0.1588583, -0.9873014},
	{-0.1603726, -0.9870566},
	{-0.1618865, -0.9868094},
	{-0.1634001, -0.9865599},
	{-0.1649133, -0.9863081},
	{-0.1664261, -0.9860539},
	{-0.1679385, -0.9857975},
	{-0.1694505, -0.9855387},
	{-0.1709621, -0.9852776},
	{-0.1724733, -0.9850142},
	{-0.1739841, -0.9847485},
	{-0.1754944, -0.9844804},
	{-0.1770044, -0.9842101},
	{-0.1785140, -0.9839374},
	{-0.1800231, -0.9836624},
	{-0.1815318, -0.9833851},
	{-0.1830401, -0.9831054},
	{-0.1845479, -0.9828235},
	{-0.1860554, -0.9825392},
	{-0.1875623, -0.9822527},
	{-0.1890689, -0.9819638},
	{-0.1905750, -0.9816726},
	{-0.1920806, -0.9813792},
	{-0.1935858, -0.9810833},
	{-0.1950906, -0.9807853},
	{-0.1965948, -0.9804848},
	{-0.1980987, -0.9801821},
	{-0.1996019, -0.9798771},
	{-0.2011048, -0.9795697},
	{-0.2026072, -0.9792601},
	{-0.2041091, -0.9789481},
	{-0.2056106, -0.9786339},
	{-0.2071115, -0.9783173},
	{-0.2086120, -0.9779985},
	{-0.2101120, -0.9776773},
	{-0.2116115, -0.9773539},
	{-0.2131105, -0.9770281},
	{-0.2146090, -0.9767001},
	{-0.2161070, -0.9763697},
	{-0.2176045, -0.9760370},
	{-0.2191014, -0.9757021},
	{-0.2205979, -0.9753649},
	{-0.2220938, -0.9750253},
	{-0.2235892, -0.9746835},
	{-0.2250841, -0.9743393},
	{-0.2265785, -0.9739929},
	{-0.2280723, -0.9736442},
	{-0.2295656, -0.9732932},
	{-0.2310583, -0.9729399},
	{-0.2325505, -0.9725843},
	{-0.2340422, -0.9722264},
	{-0.2355333, -0.9718663},
	{-0.2370238, -0.9715039},
	{-0.2385138, -0.9711391},
	{-0.2400033, -0.9707721},
	{-0.2414921, -0.9704028},
	{-0.2429803, -0.9700312},
	{-0.2444680, -0.9696574},
	{-0.2459552, -0.9692812},
	{-0.2474418, -0.9689028},
	{-0.2489278, -0.9685221},
	{-0.2504132, -0.9681391},
	{-0.2518980, -0.9677538},
	{-0.2533822, -0.9673662},
	{-0.2548658, -0.9669764},
	{-0.2563488, -0.9665843},
	{-0.2578313, -0.9661900},
	{-0.2593131, -0.9657933},
	{-0.2607943, -0.9653944},
	{-0.2622749, -0.9649932},
	{-0.2637549, -0.9645897},
	{-0.2652342, -0.9641840},
	{-0.2667130, -0.9637760},
	{-0.2681911, -0.9633657},
	{-0.2696685, -0.9629532},
	{-0.2711454, -0.9625384},
	{-0.2726216, -0.9621214},
	{-0.2740971, -0.9617020},
	{-0.2755721, -0.9612804},
	{-0.2770463, -0.9608566},
	{-0.2785199, -0.9604304},
	{-0.2799929, -0.9600021},
	{-0.2814652, -0.9595714},
	{-0.2829368, -0.9591386},
	{-0.2844077, -0.9587035},
	{-0.2858780, -0.9582660},
	{-0.2873476, -0.9578264},
	{-0.2888166, -0.9573845},
	{-0.2902848, -0.9569403},
	{-0.2917524, -0.9564939},
	{-0.2932193, -0.9560452},
	{-0.2946855, -0.9555943},
	{-0.2961511, -0.9551411},
	{-0.2976159, -0.9546857},
	{-0.2990800, -0.9542280},
	{-0.3005434, -0.9537681},
	{-0.3020061, -0.9533060},
	{-0.3034681, -0.9528416},
	{-0.3049294, -0.9523749},
	{-0.3063900, -0.9519061},
	{-0.3078499, -0.9514350},
	{-0.3093090, -0.9509616},
	{-0.3107674, -0.9504860},
	{-0.3122250, -0.9500082},
	{-0.3136820, -0.9495281},
	{-0.3151382, -0.9490458},
	{-0.3165936, -0.9485613},
	{-0.3180483, -0.9480745},
	{-0.3195023, -0.9475855},
	{-0.3209555, -0.9470943},
	{-0.3224079, -0.9466009},
	{-0.3238596, -0.9461051},
	{-0.3253106, -0.9456072},
	{-0.3267606, -0.9451072},
	{-0.3282100, -0.9446048},
	{-0.3296586, -0.9441002},
	{-0.3311065, -0.9435934},
	{-0.3325535, -0.9430844},
	{-0.3339998, -0.9425731},
	{-0.3354453, -0.9420597},
	{-0.3368900, -0.9415440},
	{-0.3383339, -0.9410261},
	{-0.3397771, -0.9405060},
	{-0.3412194, -0.9399837},
	{-0.3426609, -0.9394591},
	{-0.3441016, -0.9389324},
	{-0.3455415, -0.9384035},
	{-0.3469806, -0.9378723},
	{-0.3484189, -0.9373389},
	{-0.3498563, -0.9368033},
	{-0.3512930, -0.9362656},
	{-0.3527288, -0.9357256},
	{-0.3541637, -0.9351834},
	{-0.3555979, -0.9346390},
	{-0.3570312, -0.9340925},
	{-0.3584636, -0.9335437},
	{-0.3598953, -0.9329927},
	{-0.3613260, -0.9324396},
	{-0.3627560, -0.9318842},
	{-0.3641850, -0.9313266},
	{-0.3656133, -0.9307669},
	{-0.3670405, -0.9302050},
	{-0.3684670, -0.9296408},
	{-0.3698926, -0.9290745},
	{-0.3713174, -0.9285060},
	{-0.3727412, -0.9279353},
	{-0.3741642, -0.9273624},
	{-0.3755864, -0.9267874},
	{-0.3770076, -0.9262102},
	{-0.3784279, -0.9256307},
	{-0.3798474, -0.9250492},
	{-0.3812660, -0.9244654},
	{-0.3826836, -0.9238794},
	{-0.3841004, -0.9232913},
	{-0.3855163, -0.9227011},
	{-0.3869312, -0.9221086},
	{-0.3883452, -0.9215140},
	{-0.3897584, -0.9209172},
	{-0.3911706, -0.9203182},
	{-0.3925819, -0.9197171},
	{-0.3939922, -0.9191138},
	{-0.3954017, -0.9185083},
	{-0.3968102, -0.9179007},
	{-0.3982178, -0.9172909},
	{-0.3996244, -0.9166790},
	{-0.4010301, -0.9160649},
	{-0.4024349, -0.9154486},
	{-0.4038387, -0.9148302},
	{-0.4052415, -0.9142097},
	{-0.4066435, -0.9135869},
	{-0.4080443, -0.9129621},
	{-0.4094443, -0.9123351},
	{-0.4108433, -0.9117060},
	{-0.4122414, -0.9110746},
	{-0.4136385, -0.9104412},
	{-0.4150346, -0.9098057},
	{-0.4164297, -0.9091679},
	{-0.4178239, -0.9085280},
	{-0.4192171, -0.9078860},
	{-0.4206093, -0.9072419},
	{-0.4220005, -0.9065956},
	{-0.4233907, -0.9059472},
	{-0.4247799, -0.9052967},
	{-0.4261681, -0.9046440},
	{-0.4275553, -0.9039892},
	{-0.4289415, -0.9033323},
	{-0.4303267, -0.9026732},
	{-0.4317109, -0.9020121},
	{-0.4330940, -0.9013488},
	{-0.4344762, -0.9006833},
	{-0.4358573, -0.9000158},
	{-0.4372374, -0.8993461},
	{-0.4386165, -0.8986744},
	{-0.4399945, -0.8980005},
	{-0.4413715, -0.8973244},
	{-0.4427475, -0.8966463},
	{-0.4441224, -0.8959661},
	{-0.4454963, -0.8952838},
	{-0.4468691, -0.8945994},
	{-0.4482409, -0.8939128},
	{-0.4496116, -0.8932242},
	{-0.4509813, -0.8925334},
	{-0.4523499, -0.8918406},
	{-0.4537174, -0.8911456},
	{-0.4550839, -0.8904486},
	{-0.4564493, -0.8897495},
	{-0.4578136, -0.8890482},
	{-0.4591768, -0.8883449},
	{-0.4605390, -0.8876395},
	{-0.4619001, -0.8869320},
	{-0.4632601, -0.8862224},
	{-0.4646190, -0.8855107},
	{-0.4659768, -0.8847969},
	{-0.4673333, -0.8840812},
	{-0.4686889, -0.8833633},
	{-0.4700435, -0.8826433},
	{-0.4713968, -0.8819212},
	{-0.4727491, -0.8811970},
	{-0.4741003, -0.8804708},
	{-0.4754504, -0.8797425},
	{-0.4767994, -0.8790122},
	{-0.4781472, -0.8782797},
	{-0.4794939, -0.8775452},
	{-0.4808395, -0.8768086},
	{-0.4821839, -0.8760700},
	{-0.4835272, -0.8753293},
	{-0.4848694, -0.8745866},
	{-0.4862104, -0.8738418},
	{-0.4875503, -0.8730949},
	{-0.4888891, -0.8723460},
	{-0.4902267, -0.8715950},
	{-0.4915631, -0.8708420},
	{-0.4928984, -0.8700869},
	{-0.4942325, -0.8693298},
	{-0.4955654, -0.8685706},
	{-0.4968972, -0.8678094},
	{-0.4982279, -0.8670461},
	{-0.4995573, -0.8662809},
	{-0.5008855, -0.8655135},
	{-0.5022126, -0.8647441},
	{-0.5035386, -0.8639727},
	{-0.5048633, -0.8631993},
	{-0.5061868, -0.8624238},
	{-0.5075092, -0.8616464},
	{-0.5088304, -0.8608668},
	{-0.5101503, -0.8600852},
	{-0.5114691, -0.8593017},
	{-0.5127866, -0.8585161},
	{-0.5141030, -0.8577285},
	{-0.5154181, -0.8569388},
	{-0.5167320, -0.8561472},
	{-0.5180448, -0.8553535},
	{-0.5193563, -0.8545579},
	{-0.5206665, -0.8537601},
	{-0.5219755, -0.8529605},
	{-0.5232834, -0.8521587},
	{-0.5245900, -0.8513550},
	{-0.5258953, -0.8505493},
	{-0.5271994, -0.8497416},
	{-0.5285023, -0.8489319},
	{-0.5298039, -0.8481202},
	{-0.5311043, -0.8473065},
	{-0.5324034, -0.8464907},
	{-0.5337013, -0.8456731},
	{-0.5349979, -0.8448534},
	{-0.5362933, -0.8440317},
	{-0.5375873, -0.8432081},
	{-0.5388802, -0.8423824},
	{-0.5401717, -0.8415548},
	{-0.5414621, -0.8407252},
	{-0.5427509, -0.8398938},
	{-0.5440387, -0.8390602},
	{-0.5453251, -0.8382246},
	{-0.5466103, -0.8373871},
	{-0.5478942, -0.8365477},
	{-0.5491768, -0.8357062},
	{-0.5504581, -0.8348628},
	{-0.5517381, -0.8340174},
	{-0.5530168, -0.8331701},
	{-0.5542942, -0.8323207},
	{-0.5555704, -0.8314695},
	{-0.5568452, -0.8306163},
	{-0.5581187, -0.8297611},
	{-0.5593908, -0.8289040},
	{-0.5606617, -0.8280450},
	{-0.5619313, -0.8271839},
	{-0.5631995, -0.8263209},
	{-0.5644664, -0.8254560},
	{-0.5657320, -0.8245892},
	{-0.5669962, -0.8237204},
	{-0.5682591, -0.8228497},
	{-0.5695207, -0.8219770},
	{-0.5707809, -0.8211024},
	{-0.5720398, -0.8202258},
	{-0.5732973, -0.8193474},
	{-0.5745535, -0.8184670},
	{-0.5758084, -0.8175847},
	{-0.5770619, -0.8167005},
	{-0.5783140, -0.8158143},
	{-0.5795648, -0.8149262},
	{-0.5808142, -0.8140362},
	{-0.5820622, -0.8131443},
	{-0.5833089, -0.8122504},
	{-0.5845541, -0.8113547},
	{-0.5857981, -0.8104571},
	{-0.5870406, -0.8095575},
	{-0.5882818, -0.8086560},
	{-0.5895215, -0.8077527},
	{-0.5907599, -0.8068474},
	{-0.5919969, -0.8059402},
	{-0.5932325, -0.8050312},
	{-0.5944667, -0.8041202},
	{-0.5956995, -0.8032073},
	{-0.5969310, -0.8022926},
	{-0.5981610, -0.8013760},
	{-0.5993896, -0.8004575},
	{-0.6006168, -0.7995371},
	{-0.6018425, -0.7986148},
	{-0.6030669, -0.7976906},
	{-0.6042898, -0.7967646},
	{-0.6055113, -0.7958367},
	{-0.6067314, -0.7949069},
	{-0.6079500, -0.7939753},
	{-0.6091673, -0.7930418},
	{-0.6103831, -0.7921063},
	{-0.6115975, -0.7911691},
	{-0.6128104, -0.7902300},
	{-0.6140217, -0.7892892},
	{-0.6152317, -0.7883464},
	{-0.6164403, -0.7874017},
	{-0.6176474, -0.7864552},
	{-0.6188531, -0.7855067},
	{-0.6200573, -0.7845565},
	{-0.6212601, -0.7836044},
	{-0.6224614, -0.7826505},
	{-0.6236612, -0.7816947},
	{-0.6248596, -0.7807371},
	{-0.6260566, -0.7797777},
	{-0.6272520, -0.7788164},
	{-0.6284459, -0.7778533},
	{-0.6296384, -0.7768884},
	{-0.6308294, -0.7759216},
	{-0.6320189, -0.7749530},
	{-0.6332069, -0.7739826},
	{-0.6343935, -0.7730103},
	{-0.6355785, -0.7720363},
	{-0.6367620, -0.7710604},
	{-0.6379440, -0.7700827},
	{-0.6391246, -0.7691032},
	{-0.6403037, -0.7681219},
	{-0.6414812, -0.7671388},
	{-0.6426572, -0.7661538},
	{-0.6438317, -0.7651671},
	{-0.6450047, -0.7641786},
	{-0.6461762, -0.7631882},
	{-0.6473461, -0.7621961},
	{-0.6485146, -0.7612022},
	{-0.6496815, -0.7602065},
	{-0.6508469, -0.7592090},
	{-0.6520107, -0.7582097},
	{-0.6531730, -0.7572086},
	{-0.6543338, -0.7562058},
	{-0.6554931, -0.7552012},
	{-0.6566508, -0.7541948},
	{-0.6578069, -0.7531866},
	{-0.6589615, -0.7521766},
	{-0.6601146, -0.7511649},
	{-0.6612661, -0.7501515},
	{-0.6624160, -0.7491362},
	{-0.6635644, -0.7481192},
	{-0.6647112, -0.7471004},
	{-0.6658565, -0.7460799},
	{-0.6670002, -0.7450576},
	{-0.6681423, -0.7440335},
	{-0.6692829, -0.7430077},
	{-0.6704218, -0.7419802},
	{-0.6715592, -0.7409509},
	{-0.6726950, -0.7399198},
	{-0.6738293, -0.7388871},
	{-0.6749619, -0.7378526},
	{-0.6760930, -0.7368163},
	{-0.6772224, -0.7357783},
	{-0.6783503, -0.7347386},
	{-0.6794766, -0.7336972},
	{-0.6806011, -0.7326542},
	{-0.6817242, -0.7316093},
	{-0.6828457, -0.7305627},
	{-0.6839655, -0.7295144},
	{-0.6850838, -0.7284643},
	{-0.6862004, -0.7274125},
	{-0.6873155, -0.7263591},
	{-0.6884289, -0.7253038},
	{-0.6895407, -0.7242470},
	{-0.6906508, -0.7231883},
	{-0.6917594, -0.7221281},
	{-0.6928663, -0.7210661},
	{-0.6939716, -0.7200024},
	{-0.6950753, -0.7189370},
	{-0.6961773, -0.7178699},
	{-0.6972777, -0.7168011},
	{-0.6983764, -0.7157307},
	{-0.6994735, -0.7146586},
	{-0.7005690, -0.7135847},
	{-0.7016628, -0.7125092},
	{-0.7027549, -0.7114320},
	{-0.7038454, -0.7103532},
	{-0.7049342, -0.7092727},
	{-0.7060214, -0.7081904},
	{-0.7071069, -0.7071066},
	{-0.7081908, -0.7060211},
	{-0.7092730, -0.7049339},
	{-0.7103536, -0.7038451},
	{-0.7114324, -0.7027546},
	{-0.7125096, -0.7016624},
	{-0.7135851, -0.7005686},
	{-0.7146589, -0.6994731},
	{-0.7157310, -0.6983761},
	{-0.7168015, -0.6972773},
	{-0.7178702, -0.6961769},
	{-0.7189373, -0.6950749},
	{-0.7200027, -0.6939713},
	{-0.7210664, -0.6928660},
	{-0.7221284, -0.6917590},
	{-0.7231887, -0.6906505},
	{-0.7242473, -0.6895403},
	{-0.7253042, -0.6884285},
	{-0.7263594, -0.6873151},
	{-0.7274129, -0.6862001},
	{-0.7284646, -0.6850834},
	{-0.7295147, -0.6839651},
	{-0.7305630, -0.6828453},
	{-0.7316096, -0.6817238},
	{-0.7326545, -0.6806008},
	{-0.7336977, -0.6794761},
	{-0.7347391, -0.6783498},
	{-0.7357788, -0.6772219},
	{-0.7368168, -0.6760924},
	{-0.7378531, -0.6749614},
	{-0.7388875, -0.6738287},
	{-0.7399204, -0.6726945},
	{-0.7409514, -0.6715587},
	{-0.7419805, -0.6704214},
	{-0.7430081, -0.6692825},
	{-0.7440339, -0.6681419},
	{-0.7450579, -0.6669998},
	{-0.7460802, -0.6658561},
	{-0.7471007, -0.6647109},
	{-0.7481195, -0.6635640},
	{-0.7491365, -0.6624156},
	{-0.7501518, -0.6612657},
	{-0.7511653, -0.6601142},
